<?xml version="1.0"?>
<opencv_storage>
<opencv_ml_svm>
  <format>3</format>
  <svmType>C_SVC</svmType>
  <kernel>
    <type>LINEAR</type></kernel>
  <C>1.</C>
  <term_criteria><epsilon>1.0000000000000000e-02</epsilon>
    <iterations>1000</iterations></term_criteria>
  <var_count>900</var_count>
  <class_count>2</class_count>
  <class_labels type_id="opencv-matrix">
    <rows>2</rows>
    <cols>1</cols>
    <dt>i</dt>
    <data>
      0 1</data></class_labels>
  <sv_total>1</sv_total>
  <support_vectors>
    <_>
      -5.59700765e-02 1.09835260e-01 -6.94224015e-02 -3.16394307e-02
      6.51255772e-02 -3.59014906e-02 -4.78495993e-02 7.99813420e-02
      -6.69447556e-02 3.11514566e-04 5.66532239e-02 -4.07393910e-02
      1.20473676e-03 -4.11307532e-03 -3.24345729e-03 -1.33815119e-02
      9.10603534e-03 3.79906334e-02 -1.23825083e-02 -1.18928067e-02
      2.03480432e-03 -9.17808246e-03 -2.31311228e-02 4.70856018e-02
      -2.91307233e-02 6.67159446e-03 5.55315912e-02 -2.45216507e-02
      2.88602635e-02 -1.98918469e-02 -2.46818122e-02 1.79085396e-02
      4.90956344e-02 -2.21775696e-02 4.82558310e-02 -2.48176642e-02
      2.02032197e-02 4.78682779e-02 -3.25759277e-02 1.26473624e-02
      2.73237471e-02 -3.59413549e-02 2.25131195e-02 7.86166564e-02
      -3.06358300e-02 5.32433951e-05 4.00426127e-02 -3.99597995e-02
      -2.11018082e-02 5.96102625e-02 -2.80330218e-02 -4.41894643e-02
      5.81063069e-02 -4.69784029e-02 1.58111463e-04 6.53306618e-02
      -3.23446244e-02 -4.03421335e-02 6.20158054e-02 -5.28908931e-02
      -5.12458496e-02 9.92383882e-02 -5.78374155e-02 -4.70486209e-02
      3.43923308e-02 -3.36306468e-02 -3.78783345e-02 7.92747140e-02
      -1.03176013e-01 1.49857728e-02 1.66448783e-02 -4.65532811e-03
      -8.68490711e-03 -7.03069121e-02 6.11206377e-03 4.13504677e-05
      -4.80888151e-02 5.33362217e-02 4.69059013e-02 -2.73568500e-02
      3.57392542e-02 4.07765619e-02 -1.13404701e-02 4.36364263e-02
      -1.20118270e-02 -2.12382637e-02 4.35508937e-02 -2.55003776e-02
      3.59510221e-02 -3.75559889e-02 4.26146984e-02 -4.94012097e-03
      4.59563695e-02 3.17164548e-02 2.85496581e-02 -3.68459895e-02
      4.08857763e-02 9.60657597e-02 -4.97340485e-02 2.93064322e-02
      7.46371374e-02 -4.52093743e-02 2.09662318e-03 6.51534051e-02
      -5.51801547e-02 -1.88290924e-02 1.33672934e-02 -4.78467457e-02
      -3.15333786e-03 8.27276930e-02 -5.20437919e-02 -4.06112000e-02
      6.98468089e-02 -6.76011741e-02 -2.75499895e-02 6.21589422e-02
      -1.93720553e-02 -6.97143376e-02 8.05487409e-02 -4.14104797e-02
      -4.67410274e-02 4.70966324e-02 -1.13016911e-01 2.67426614e-02
      4.42390591e-02 2.93706334e-03 -7.85608441e-02 2.54589468e-02
      -8.27769712e-02 2.00140402e-02 2.45390367e-02 4.75850217e-02
      1.95091963e-02 1.36147235e-02 4.47998643e-02 1.49213038e-02
      4.90513816e-02 3.44822370e-02 -4.22143862e-02 -5.24333911e-03
      5.70588894e-02 -4.14872579e-02 -2.28526001e-03 2.67431810e-02
      2.32534651e-02 5.04605435e-02 4.67201285e-02 4.90925601e-03
      7.88894370e-02 -2.14188304e-02 -2.22701896e-02 1.97035335e-02
      3.04336865e-02 -2.95425970e-02 6.24736995e-02 -2.19678283e-02
      -4.76275124e-02 1.01412408e-01 -6.36657104e-02 -4.35565151e-02
      5.05747460e-02 -1.08766332e-02 -3.21747772e-02 9.28365588e-02
      -4.36501056e-02 -4.31811847e-02 4.55007032e-02 -4.77034220e-04
      -4.94199321e-02 4.84945215e-02 -1.42060034e-02 -8.44955593e-02
      6.03827536e-02 -4.92094606e-02 -3.26225162e-02 3.75819318e-02
      -1.73489619e-02 -1.83148570e-02 4.01588492e-02 -7.42722489e-03
      -5.89054078e-02 9.45982616e-03 -6.52952641e-02 -1.13075944e-02
      2.97704544e-02 2.63627805e-02 -4.66655307e-02 2.04589125e-02
      -8.85184482e-02 2.59352848e-02 2.11860798e-02 2.96232514e-02
      -2.95336172e-02 9.43514705e-03 8.04411843e-02 -4.40078229e-02
      1.00883069e-02 3.07147410e-02 3.12304068e-02 2.58126669e-02
      3.85429710e-02 7.49180606e-03 4.34669480e-03 1.14831384e-02
      1.29805077e-02 4.08451930e-02 1.21675273e-02 3.09340768e-02
      5.03859371e-02 -5.65813966e-02 3.10200993e-02 1.39963180e-02
      1.44137125e-02 4.19604518e-02 1.68805532e-02 -3.95517424e-02
      1.58358105e-02 8.82152095e-02 -1.04828916e-01 -7.66837550e-03
      6.30571246e-02 -5.02331704e-02 3.45062464e-02 6.11351952e-02
      -9.89500806e-02 5.57585526e-03 4.90474999e-02 -6.87707141e-02
      -1.38978160e-03 5.46203777e-02 -6.24798350e-02 -3.84669900e-02
      2.99722198e-02 -1.92553289e-02 -1.66986454e-02 4.00951691e-02
      -3.18318047e-02 -7.34841153e-02 3.43312286e-02 -3.62850241e-02
      -6.04018308e-02 3.57295573e-02 -6.92789704e-02 2.94365850e-03
      5.81402369e-02 2.27004439e-02 -1.00221097e-01 2.74590421e-02
      -9.06616226e-02 -2.38073841e-02 3.84180285e-02 8.05442128e-03
      -3.60073987e-03 3.22012454e-02 5.86550198e-02 2.05666423e-02
      2.47527063e-02 2.11864263e-02 -5.51048703e-02 3.02714054e-02
      4.14236709e-02 -3.68633717e-02 1.99082866e-02 1.00881921e-03
      5.08438572e-02 3.00873239e-02 1.37106124e-02 2.91962884e-02
      5.45697212e-02 -3.59659716e-02 1.00666098e-02 4.21570279e-02
      -7.45106663e-04 -2.20971610e-02 5.40173650e-02 -5.70879877e-02
      1.37851769e-02 8.93111601e-02 -8.03734809e-02 -2.72145607e-02
      5.86739704e-02 -5.24628945e-02 -1.85232703e-02 8.80282968e-02
      -5.25074862e-02 -5.42482212e-02 3.95634845e-02 -1.31663280e-02
      -5.96782789e-02 3.11762933e-02 -3.54887247e-02 -7.58359954e-02
      3.11762933e-02 5.48269227e-03 -5.66966347e-02 3.20293754e-02
      -9.43779960e-05 -2.96971314e-02 3.11762933e-02 3.29319648e-02
      -8.91858786e-02 1.80179775e-02 -5.16227074e-02 -6.25322461e-02
      5.13034388e-02 3.59434122e-03 -7.59661049e-02 3.16554382e-02
      -7.22730607e-02 8.22452239e-06 3.82158458e-02 3.07425037e-02
      -4.45502400e-02 3.79038118e-02 6.26014695e-02 -4.24952134e-02
      3.78965028e-02 2.27359449e-03 -2.73450166e-02 2.05399152e-02
      4.84709851e-02 -1.13104358e-02 4.30738851e-02 4.75478079e-03
      5.57925610e-04 5.41231148e-02 1.37812821e-02 1.13856429e-02
      7.12486655e-02 -4.44571860e-02 1.00367647e-02 5.51921800e-02
      2.45282315e-02 3.43683027e-02 2.41258088e-02 -4.31577191e-02
      4.31793602e-03 9.21309292e-02 -7.52154440e-02 -2.12338362e-02
      6.59684017e-02 -3.58750224e-02 1.58125032e-02 6.30186573e-02
      -7.82442987e-02 1.90760978e-02 5.23194075e-02 -7.20351338e-02
      -1.38928406e-02 4.54995148e-02 -2.78446134e-02 -3.30196731e-02
      2.89846398e-02 -8.95529240e-03 9.51104157e-05 3.20902914e-02
      -5.80834672e-02 -4.74815369e-02 2.89846398e-02 -3.03080659e-02
      -5.28221279e-02 2.52210572e-02 -6.86548501e-02 -1.08667323e-02
      5.18175848e-02 -2.34487932e-03 -1.08365513e-01 2.76788678e-02
      -4.83089052e-02 -6.62531033e-02 3.53212617e-02 4.58138436e-02
      -1.26899127e-02 1.15924114e-02 5.06158955e-02 -5.54139679e-03
      3.53044383e-02 3.64114456e-02 -5.19688055e-02 2.14447966e-03
      6.69670328e-02 -2.01084539e-02 1.02332560e-02 1.66219901e-02
      2.80000921e-02 4.42264453e-02 2.69836430e-02 4.57294285e-02
      5.69526069e-02 -4.66913693e-02 1.71340369e-02 3.31279151e-02
      1.81010254e-02 1.60589907e-02 4.33420949e-02 -6.47575706e-02
      1.73778236e-02 5.77745065e-02 -7.56384730e-02 2.09545251e-02
      3.86604927e-02 -7.57714808e-02 1.03566842e-02 7.02144802e-02
      -4.39505689e-02 -1.29961856e-02 4.32199501e-02 -2.66499054e-02
      2.30382439e-02 6.35858206e-03 -6.74617887e-02 -4.19932641e-02
      2.50144359e-02 -5.27973995e-02 1.24933673e-02 2.21585967e-02
      -2.19508838e-02 3.67852151e-02 1.70112066e-02 -6.15580454e-02
      -8.75188708e-02 2.52930019e-02 -3.59361805e-02 -7.97534734e-02
      6.19185567e-02 5.85618913e-02 -8.39523450e-02 3.15757915e-02
      -1.03544004e-01 -4.78764139e-02 5.42488024e-02 1.75311547e-02
      -5.08021563e-02 2.28023082e-02 9.59222540e-02 -4.10455614e-02
      2.09058505e-02 2.48624966e-03 -4.28756177e-02 3.27618159e-02
      5.79977781e-02 -1.93494931e-02 4.44701724e-02 6.79760124e-04
      4.78043500e-03 6.50617555e-02 9.16626677e-03 7.93602411e-03
      5.64526692e-02 -4.31962833e-02 2.91069783e-02 5.45016788e-02
      3.64883221e-03 2.58992575e-02 3.53427380e-02 -3.50425169e-02
      -3.74341290e-03 6.43355399e-02 -6.49202317e-02 7.63545372e-03
      6.13016859e-02 -4.11016606e-02 3.98290269e-02 6.84279129e-02
      -4.78555858e-02 3.01579200e-02 2.46047471e-02 -7.75742605e-02
      9.98335704e-03 5.92205673e-02 -3.28856781e-02 -2.09081685e-03
      3.30118686e-02 -4.63007838e-02 -3.35370004e-02 4.66720574e-02
      -6.05514273e-02 -6.12635091e-02 3.30118686e-02 -7.01111034e-02
      -6.38046265e-02 2.02727783e-02 -6.27533421e-02 -2.94500981e-02
      7.98514858e-02 -1.94587260e-02 -1.08124949e-01 4.54639494e-02
      -4.90676761e-02 -2.86477059e-02 5.65020293e-02 -2.09044386e-02
      -7.03988364e-03 2.34697070e-02 2.11354848e-02 1.69827379e-02
      4.29756455e-02 2.78992113e-02 -9.91630834e-03 2.25455705e-02
      4.47424361e-03 -1.37998071e-03 1.55153535e-02 2.37983670e-02
      5.36069460e-02 7.67743960e-02 1.22829955e-02 4.79028374e-02
      6.64172992e-02 -5.27962409e-02 3.90590243e-02 4.54938114e-02
      3.30531085e-03 2.08081957e-02 4.24035639e-02 -7.74978697e-02
      4.19264995e-02 9.03442502e-02 -7.59294927e-02 6.81646168e-03
      5.01587242e-02 -9.26406458e-02 8.21430050e-03 8.58299136e-02
      -6.19291067e-02 -4.97302450e-02 4.87433150e-02 -3.86160724e-02
      -4.80909124e-02 6.03916384e-02 -8.38438049e-02 -6.51813820e-02
      3.29664163e-02 -2.49249823e-02 -2.70312298e-02 5.29676937e-02
      -3.12677398e-02 -1.43074049e-02 3.29664163e-02 2.14060489e-03
      -1.13676883e-01 3.49106900e-02 -2.44107116e-02 -8.22767243e-02
      8.17609876e-02 4.20964770e-02 -1.16984762e-01 3.40720564e-02
      -7.65399039e-02 -7.25966990e-02 7.26949349e-02 2.82414034e-02
      -2.76319552e-02 3.82777490e-02 8.63780305e-02 -3.19727771e-02
      4.32299590e-03 1.62568670e-02 -4.71595861e-02 1.98925342e-02
      6.40935153e-02 -2.70173773e-02 3.42639312e-02 -1.55624386e-03
      2.06402764e-02 4.01529446e-02 4.10536351e-03 3.61988246e-02
      6.26771227e-02 -4.10109758e-02 1.19774677e-02 5.00721410e-02
      1.37212942e-03 3.10919248e-02 3.61204334e-02 -4.44894694e-02
      2.08549220e-02 8.30683634e-02 -6.22458048e-02 4.72502271e-03
      5.58918975e-02 -4.15951163e-02 3.99936326e-02 7.47702867e-02
      -7.30958730e-02 1.00852204e-02 2.52167527e-02 -8.49486440e-02
      -3.64895836e-02 5.84290922e-02 -5.34863919e-02 -5.91802374e-02
      5.84772490e-02 -1.69410966e-02 -3.24494392e-02 5.80761731e-02
      -6.74554184e-02 -5.61603829e-02 5.74778952e-02 -2.79652122e-02
      -7.73357004e-02 2.60771066e-02 -8.53825286e-02 -7.34995082e-02
      8.36538449e-02 -6.40121428e-03 -1.29341140e-01 3.95970196e-02
      -7.55147636e-02 -7.25546703e-02 6.49194717e-02 2.57665552e-02
      -2.57134773e-02 1.75774973e-02 3.96942832e-02 1.02718985e-02
      4.21238281e-02 1.83620900e-02 -2.42518471e-03 1.82418562e-02
      2.22617872e-02 1.36178359e-02 1.90917067e-02 2.68704575e-02
      4.57703769e-02 6.83384389e-02 6.76193135e-03 4.96680699e-02
      5.76037616e-02 -6.35713562e-02 4.58061099e-02 6.09571934e-02
      1.15235867e-02 2.63560247e-02 4.56663035e-02 -7.76041001e-02
      5.49728833e-02 8.26179609e-02 -8.15057978e-02 3.03202290e-02
      5.94083928e-02 -8.42515379e-02 1.56517550e-02 7.52755851e-02
      -6.14098050e-02 -2.81757377e-02 4.40359786e-02 -5.79075068e-02
      -2.13987287e-02 6.83999881e-02 -9.04127210e-02 -2.58660484e-02
      3.87286618e-02 -2.96539702e-02 -4.11663912e-02 4.85580303e-02
      -3.20864096e-02 -3.17238495e-02 2.87500117e-02 -7.60355312e-03
      -1.12710737e-01 1.86465010e-02 -4.31754030e-02 -5.33463284e-02
      7.22334981e-02 2.88945679e-02 -1.03695557e-01 4.52414639e-02
      -3.94689068e-02 -1.00262716e-01 6.86369911e-02 1.49061903e-02
      -5.94546413e-03 2.60609016e-02 6.85561374e-02 -3.61230299e-02
      1.34890219e-02 1.70572288e-02 -5.15563823e-02 2.74469331e-02
      4.19300124e-02 -3.15756984e-02 3.15287337e-02 2.38321964e-02
      2.40906160e-02 4.52406146e-02 1.29780229e-02 3.67802791e-02
      6.82377592e-02 -7.66104311e-02 -9.78629291e-03 6.96250945e-02
      1.47875277e-02 1.99077018e-02 5.88735193e-02 -4.72426564e-02
      -7.35132070e-03 8.44808593e-02 -6.28486648e-02 -1.57098038e-04
      4.74107414e-02 -2.54997220e-02 2.49910988e-02 6.78873658e-02
      -7.45102242e-02 5.36626810e-03 2.93952618e-02 -4.36311290e-02
      -6.95428178e-02 4.64155115e-02 -1.11835953e-02 -5.47873192e-02
      1.82864461e-02 3.81790777e-03 -5.79833947e-02 4.69885468e-02
      1.32373814e-02 -7.22992867e-02 4.03628265e-03 5.19947112e-02
      -6.34769052e-02 5.98112270e-02 -7.21753165e-02 -8.33190456e-02
      1.02475233e-01 -1.94413476e-02 -8.15588534e-02 5.34099527e-02
      -6.34834766e-02 -1.51015129e-02 7.60223642e-02 -4.13825512e-02
      -5.31510599e-02 3.85109745e-02 3.48282568e-02 -1.01545574e-02
      4.97976802e-02 2.70892922e-02 1.25777004e-02 2.44285315e-02
      1.63043775e-02 1.73921101e-02 3.09418961e-02 2.00355053e-02
      3.74954306e-02 7.79555738e-02 4.84387670e-03 4.07747254e-02
      4.30658571e-02 -5.65807819e-02 4.57201041e-02 7.68446699e-02
      1.24499784e-03 3.84153873e-02 5.19079305e-02 -6.03565127e-02
      4.33825739e-02 7.61303380e-02 -8.61967653e-02 4.08811048e-02
      6.73968717e-02 -6.82643354e-02 3.75972316e-02 7.30208158e-02
      -4.59694155e-02 3.23351249e-02 4.68692668e-02 -5.73953390e-02
      -2.51324065e-02 3.64088155e-02 -6.65550530e-02 5.03485724e-02
      -4.60695103e-02 -2.65034959e-02 5.05945534e-02 8.19900818e-03
      -7.25857019e-02 4.46541868e-02 3.51137258e-02 -5.76290786e-02
      -7.38533810e-02 -8.24066158e-03 8.18876550e-03 -2.30214652e-02
      3.64877135e-02 2.63264356e-03 -1.17048454e-02 -5.28218821e-02
      1.20668663e-02 2.40581036e-02 5.08066863e-02 -1.98838357e-02
      -1.56250428e-02 3.31615768e-02 3.13889161e-02 2.45259777e-02
      6.21057078e-02 1.95806846e-02 -2.49877907e-02 7.07596764e-02
      -4.11304832e-02 -1.20353522e-02 6.04400374e-02 -1.36677567e-02
      4.45569754e-02 9.88085344e-02 -2.12642457e-03 3.46248262e-02
      7.75151402e-02 -3.87165248e-02 -2.06587780e-02 5.07687367e-02
      1.43370926e-02 -4.96737733e-02 2.31771860e-02 -1.77337993e-02
      -2.26929747e-02 7.98466057e-02 -6.33549988e-02 3.12730148e-02
      1.08799022e-02 -1.15581993e-02 -8.60052928e-03 6.44617006e-02
      -3.07593606e-02 2.20680833e-02 1.42050739e-02 -5.26270969e-03
      1.99667998e-02 -3.32245044e-02 -6.32943064e-02 5.99030554e-02
      -1.09126640e-03 -7.13228136e-02 4.67884615e-02 5.68065979e-03
      -5.30978516e-02 4.74248752e-02 1.13555947e-02 -9.24919173e-02
      4.47478481e-02 -7.95769468e-02 -3.47136185e-02 2.83735674e-02
      4.82542673e-03 -2.11495496e-02 1.06868535e-01 4.18780185e-03
      1.99427246e-03 4.60596830e-02 1.26239518e-02 -2.11495496e-02
      -9.51282587e-03 3.84041704e-02 -7.00557278e-03 -9.98462085e-03
      1.28699988e-02 -1.17297564e-03 3.61101553e-02 -5.76253282e-03
      -9.91802849e-03 -1.92689220e-03 -2.80204341e-02 -9.98462085e-03
      -7.34848389e-03 9.94266942e-03 2.73285364e-03 -3.32590914e-03
      -1.18038189e-02 1.65933967e-02 -5.91739174e-03 -1.07082790e-02
      -8.98166373e-03 -7.34848389e-03 3.12807417e-04 1.39910914e-02
      -1.65741879e-03 -2.26070322e-02 -6.44659204e-03 -9.10398737e-03
      2.03184225e-02 -4.24037687e-03 -9.19477083e-03 -1.39205456e-02
      3.43118645e-02 -3.41339549e-03 -1.99431349e-02 4.03172411e-02
      3.12110372e-02 4.49059494e-02 -4.73210141e-02 3.10307033e-02
      6.13525743e-03 -1.01921335e-01 3.10307033e-02 -4.28375378e-02
      -1.28189670e-02 3.31526957e-02 -3.70766764e-04 -4.78024855e-02</_></support_vectors>
  <uncompressed_sv_total>31</uncompressed_sv_total>
  <uncompressed_support_vectors>
    <_>
      3.38128179e-01 1.16132967e-01 3.38128179e-01 1.52146816e-01
      3.38128179e-01 3.38128179e-01 1.92848772e-01 3.38128179e-01
      3.38128179e-01 9.02789608e-02 3.38128179e-01 3.38128179e-01
      1.57948479e-01 3.53007048e-01 2.77439922e-01 3.53007048e-01
      1.62622705e-01 1.53049693e-01 3.53007048e-01 3.53007048e-01
      3.53007048e-01 3.53007048e-01 2.51464427e-01 1.83749571e-01
      3.71282578e-01 1.41511202e-01 1.14596248e-01 3.71282578e-01
      1.60159394e-01 3.71282578e-01 3.71282578e-01 2.42938995e-01
      7.35711753e-02 3.71282578e-01 2.14348659e-01 3.71282578e-01
      1.65771246e-01 1.00734532e-01 4.14420217e-01 1.91027269e-01
      1.83278680e-01 4.14420217e-01 1.45155609e-01 1.63380668e-01
      4.14420217e-01 2.83090442e-01 2.70684034e-01 4.14420217e-01
      2.60591686e-01 3.13068807e-01 1.97795480e-01 3.13068807e-01
      3.13068807e-01 3.06563884e-01 3.13068807e-01 3.13068807e-01
      3.13068807e-01 3.13068807e-01 3.13068807e-01 1.08455740e-01
      1.05416007e-01 3.75836432e-01 1.28098711e-01 3.11644047e-01
      3.75836432e-01 3.75836432e-01 1.37720928e-01 3.75836432e-01
      3.36224176e-02 3.75836432e-01 3.75836432e-01 6.31336793e-02
      3.76001269e-01 2.59197772e-01 3.35655689e-01 3.76001269e-01
      1.48324773e-01 1.33436099e-01 3.76001269e-01 3.76001269e-01
      8.04853588e-02 3.76001269e-01 2.33508393e-01 9.32798684e-02
      3.82473260e-01 1.72788590e-01 6.00858927e-02 3.82473260e-01
      1.56367823e-01 3.82473260e-01 3.82473260e-01 1.63492277e-01
      1.18522935e-01 3.82473260e-01 1.40604615e-01 3.82473260e-01
      8.85229185e-02 1.69254452e-01 3.96144241e-01 1.59181818e-01
      3.22527885e-01 3.96144241e-01 1.86479241e-01 1.53785110e-01
      3.96144241e-01 1.26420170e-01 3.57866555e-01 3.96144241e-01
      3.29639554e-01 2.97905833e-01 3.29639554e-01 2.89736271e-01
      3.29639554e-01 2.20262975e-01 9.68159884e-02 3.29639554e-01
      3.29639554e-01 7.40720257e-02 3.29639554e-01 3.29639554e-01
      7.12968558e-02 4.22223717e-01 4.46943454e-02 1.83149293e-01
      4.22223717e-01 1.31867543e-01 6.58404157e-02 4.22223717e-01
      1.10315710e-01 1.72916040e-01 4.22223717e-01 4.22223717e-01
      2.69384980e-01 3.43136072e-01 1.10412955e-01 3.43136072e-01
      2.57059216e-01 7.71415010e-02 3.43136072e-01 3.43136072e-01
      3.43136072e-01 3.43136072e-01 3.18624794e-01 1.78342670e-01
      3.79117340e-01 1.43371925e-01 8.81708488e-02 3.79117340e-01
      9.91658270e-02 3.79117340e-01 3.79117340e-01 2.52391070e-01
      1.08463973e-01 3.79117340e-01 1.42139271e-01 3.79117340e-01
      1.47408605e-01 1.00056879e-01 4.16591793e-01 1.08002387e-01
      2.55786419e-01 4.16591793e-01 1.61295995e-01 1.30157024e-01
      4.16591793e-01 1.83263138e-01 3.40982527e-01 4.16591793e-01
      1.66166216e-01 3.36188972e-01 3.36188972e-01 1.34652570e-01
      3.36188972e-01 1.95388630e-01 3.36188972e-01 3.36188972e-01
      3.36188972e-01 3.36188972e-01 3.36188972e-01 9.23988149e-02
      8.59355628e-02 3.31078857e-01 1.36113986e-01 3.63724351e-01
      3.84419799e-01 2.42039815e-01 7.17971921e-02 3.84419799e-01
      2.38626778e-01 3.62661988e-01 3.84419799e-01 1.81103468e-01
      3.77711624e-01 2.85077244e-01 2.05069095e-01 3.77711624e-01
      2.18599021e-01 1.12085335e-01 3.77711624e-01 3.77711624e-01
      1.40026301e-01 3.77711624e-01 2.39655241e-01 1.48940071e-01
      3.78442973e-01 2.21750617e-01 7.05202147e-02 3.78442973e-01
      1.61752269e-01 3.78442973e-01 3.78442973e-01 1.41891167e-01
      1.39781222e-01 3.78442973e-01 1.30087614e-01 3.78442973e-01
      1.38849095e-01 1.14420049e-01 3.80776852e-01 1.05117097e-01
      3.43219519e-01 3.80776852e-01 2.28034332e-01 1.46930248e-01
      3.80776852e-01 2.27285340e-01 3.60228866e-01 3.80776852e-01
      1.55814856e-01 3.38275373e-01 3.38275373e-01 1.61346614e-01
      3.19968492e-01 2.69575298e-01 1.88475609e-01 3.38275373e-01
      3.38275373e-01 2.21707314e-01 3.38275373e-01 3.38275373e-01
      8.20265114e-02 3.68362159e-01 1.38188973e-01 9.56999958e-02
      3.68362159e-01 3.68362159e-01 2.71916121e-01 3.33591938e-01
      1.19990438e-01 2.88554490e-01 3.68362159e-01 3.68362159e-01
      2.31308088e-01 3.37221473e-01 3.14987749e-01 3.37221473e-01
      1.89800560e-01 1.92649499e-01 3.37221473e-01 3.18618953e-01
      3.37221473e-01 3.37221473e-01 2.56848037e-01 1.86256379e-01
      3.82919729e-01 1.00561373e-01 1.48257717e-01 3.82919729e-01
      6.72104359e-02 3.82919729e-01 3.82919729e-01 2.02689528e-01
      1.28410637e-01 3.82919729e-01 1.49086580e-01 3.82919729e-01
      1.67876586e-01 9.62190405e-02 3.96403521e-01 2.78677583e-01
      1.62266091e-01 3.96403521e-01 3.10504556e-01 1.24781407e-01
      3.96403521e-01 3.00983965e-01 1.53264001e-01 3.96403521e-01
      3.14299434e-01 3.14299434e-01 3.14299434e-01 2.50879705e-01
      3.14299434e-01 1.47028789e-01 2.91268706e-01 2.95433164e-01
      3.14299434e-01 2.20667541e-01 3.14299434e-01 3.14299434e-01
      2.74747610e-01 2.87777692e-01 5.95083162e-02 4.15345043e-01
      4.15345043e-01 1.01299897e-01 9.83552635e-02 4.15345043e-01
      1.01406999e-01 2.86157429e-01 4.15345043e-01 1.78483307e-01
      3.56905639e-01 3.55019629e-01 7.95610994e-02 3.56905639e-01
      2.27132022e-01 6.89114332e-02 3.56905639e-01 3.56905639e-01
      1.54243827e-01 3.56905639e-01 3.56905639e-01 1.40166029e-01
      3.76119286e-01 1.68395326e-01 7.71962404e-02 3.76119286e-01
      1.51663005e-01 3.76119286e-01 3.76119286e-01 2.07614616e-01
      8.60376358e-02 3.76119286e-01 1.99057475e-01 3.76119286e-01
      2.74420887e-01 1.62703991e-01 3.83041680e-01 1.72398165e-01
      2.17678428e-01 3.83041680e-01 2.58551210e-01 2.08410487e-01
      3.83041680e-01 2.06339955e-01 2.78469324e-01 3.83041680e-01
      6.72063529e-02 3.43515575e-01 3.58954996e-01 4.18297797e-02
      3.58954996e-01 3.58954996e-01 1.69631705e-01 3.58954996e-01
      3.58954996e-01 1.17070109e-01 3.58954996e-01 2.37848267e-01
      2.66195871e-02 3.81967813e-01 1.33612514e-01 5.22916652e-02
      3.81967813e-01 3.81967813e-01 1.55734643e-01 3.81967813e-01
      9.21729133e-02 3.21373016e-01 3.81967813e-01 3.30699056e-01
      1.95135310e-01 3.34796458e-01 3.33050579e-01 3.34796458e-01
      2.82642782e-01 2.22748652e-01 3.34796458e-01 3.34796458e-01
      2.52221912e-01 3.34796458e-01 2.34293982e-01 1.97983399e-01
      3.71199846e-01 2.12837830e-01 6.31842688e-02 3.71199846e-01
      1.69449165e-01 3.71199846e-01 3.71199846e-01 2.69470483e-01
      7.11034164e-02 3.71199846e-01 2.11228788e-01 3.27188164e-01
      2.27042511e-01 1.62456289e-01 3.75383526e-01 1.94007099e-01
      2.39075437e-01 3.75383526e-01 2.57431656e-01 2.09099397e-01
      3.75383526e-01 2.25340649e-01 3.14786077e-01 3.75383526e-01
      3.20432246e-01 3.20432246e-01 3.20432246e-01 2.98701167e-01
      3.20432246e-01 1.43390283e-01 2.77263552e-01 2.04709128e-01
      3.20432246e-01 2.22478211e-01 3.20432246e-01 3.20432246e-01
      1.00619443e-01 2.82205880e-01 1.73815146e-01 2.47736245e-01
      4.05894339e-01 1.05024450e-01 7.24296793e-02 3.65985155e-01
      4.05894339e-01 7.33064339e-02 4.05894339e-01 4.05894339e-01
      3.53561789e-01 3.53561789e-01 5.40369637e-02 3.53561789e-01
      2.97702432e-01 9.43705514e-02 1.69764087e-01 3.53561789e-01
      2.52264559e-01 3.53561789e-01 3.53561789e-01 2.31348231e-01
      3.87888193e-01 1.56467319e-01 8.02741125e-02 3.87888193e-01
      1.64611220e-01 3.33092511e-01 3.87888193e-01 1.74732700e-01
      1.01993173e-01 3.87888193e-01 1.84203446e-01 3.87888193e-01
      2.63988554e-01 1.15861543e-01 4.19669062e-01 1.63735256e-01
      1.74547479e-01 4.19669062e-01 3.18293035e-01 1.09118618e-01
      4.19669062e-01 9.82057005e-02 1.67534187e-01 4.19669062e-01
      1.06352352e-01 2.86336929e-01 3.42523307e-01 6.90843612e-02
      3.42523307e-01 3.42523307e-01 2.17092127e-01 3.42523307e-01
      3.42523307e-01 3.42523307e-01 3.42523307e-01 1.73553526e-01
      6.05303720e-02 4.03034985e-01 2.34113500e-01 5.43455258e-02
      4.03034985e-01 4.03034985e-01 1.03853352e-01 4.03034985e-01
      6.69845119e-02 2.55782455e-01 4.03034985e-01 2.04117671e-01
      1.29853562e-01 3.32096100e-01 3.32096100e-01 3.32096100e-01
      2.83322066e-01 2.96297818e-01 3.32096100e-01 3.32096100e-01
      1.74802199e-01 3.32096100e-01 3.17492723e-01 1.36644557e-01
      4.14471149e-01 1.85697347e-01 6.09793365e-02 4.14471149e-01
      1.66472465e-01 2.86664188e-01 4.14471149e-01 2.22420126e-01
      3.36247645e-02 4.14471149e-01 1.74643338e-01 2.81995177e-01
      2.51267910e-01 1.21652529e-01 3.95784318e-01 8.11180174e-02
      2.31093436e-01 3.95784318e-01 3.03575188e-01 1.71171635e-01
      3.95784318e-01 1.97514921e-01 2.66601086e-01 3.95784318e-01
      2.55741090e-01 2.05378503e-01 3.32477719e-01 3.32477719e-01
      3.32477719e-01 2.78139770e-01 2.41762698e-01 2.26374686e-01
      3.32477719e-01 1.96949676e-01 3.32477719e-01 3.32477719e-01
      2.59654790e-01 3.61212224e-01 5.47215901e-02 3.46827120e-01
      3.61212224e-01 6.29535541e-02 3.61212224e-01 3.25506449e-01
      7.99926519e-02 2.67811537e-01 3.61212224e-01 3.09435904e-01
      3.10416430e-01 3.31197113e-01 6.03197552e-02 3.31197113e-01
      3.31197113e-01 8.61216933e-02 1.08372323e-01 3.31197113e-01
      3.31197113e-01 3.31197113e-01 3.31197113e-01 3.31197113e-01
      4.18539345e-01 1.99707881e-01 4.32096235e-02 4.18539345e-01
      1.43454716e-01 2.55332440e-01 4.18539345e-01 2.17987776e-01
      1.37805298e-01 4.18539345e-01 2.10343793e-01 2.38412634e-01
      3.26293707e-01 1.09983124e-01 3.98241252e-01 1.56804442e-01
      1.25934541e-01 3.98241252e-01 3.98241252e-01 1.07098944e-01
      3.98241252e-01 1.35286480e-01 1.19405180e-01 3.98241252e-01
      1.18728071e-01 2.72572786e-01 3.46733898e-01 7.72548243e-02
      3.46733898e-01 3.46733898e-01 2.02350035e-01 2.39997685e-01
      3.46733898e-01 3.46733898e-01 3.46733898e-01 2.86852688e-01
      2.32065320e-01 3.58576894e-01 1.19531423e-01 2.93133229e-01
      3.58576894e-01 3.58576894e-01 1.70046881e-01 3.58576894e-01
      1.67037010e-01 3.58576894e-01 3.58576894e-01 1.18602373e-01
      1.83768466e-01 3.40500265e-01 2.95881838e-01 3.40500265e-01
      2.19270766e-01 3.40500265e-01 3.40500265e-01 3.40500265e-01
      5.92541285e-02 3.40500265e-01 3.40500265e-01 1.10032991e-01
      4.45551008e-01 1.50542945e-01 1.17232375e-01 4.45551008e-01
      1.90589711e-01 1.51060686e-01 4.45551008e-01 1.72985822e-01
      8.47668201e-02 4.45551008e-01 1.60600111e-01 2.07447320e-01
      3.78146529e-01 1.21619865e-01 3.78146529e-01 1.05432808e-01
      1.61277100e-01 3.78146529e-01 3.78146529e-01 1.20768778e-01
      3.78146529e-01 1.71272188e-01 2.05952048e-01 3.78146529e-01
      1.56442240e-01 2.06193194e-01 3.50383401e-01 3.24611634e-01
      3.50383401e-01 3.50383401e-01 7.75889531e-02 2.76732028e-01
      3.50383401e-01 7.01767355e-02 3.50383401e-01 3.50383401e-01
      1.66760579e-01 4.12438065e-01 1.11947581e-01 2.16156885e-01
      4.12438065e-01 9.65034440e-02 1.40657872e-01 4.12438065e-01
      1.92473814e-01 1.30379573e-01 4.12438065e-01 3.81118953e-01
      1.41416401e-01 3.50230098e-01 5.23712747e-02 3.50230098e-01
      3.50230098e-01 8.09850320e-02 6.98830187e-02 3.50230098e-01
      3.22008222e-01 3.50230098e-01 3.50230098e-01 3.50230098e-01
      4.24116462e-01 2.04326466e-01 5.34795932e-02 4.24116462e-01
      1.54658347e-01 1.75741807e-01 4.24116462e-01 2.50135899e-01
      1.38620049e-01 4.24116462e-01 2.73200899e-01 1.42927051e-01
      3.80177200e-01 9.61939692e-02 3.80177200e-01 1.26142189e-01
      1.31739184e-01 3.80177200e-01 3.80177200e-01 1.80457696e-01
      3.80177200e-01 1.17365330e-01 2.00334072e-01 3.80177200e-01
      8.97429287e-02 1.95453987e-01 3.49492580e-01 1.41981587e-01
      3.49492580e-01 3.49492580e-01 1.76088765e-01 2.09930003e-01
      3.49492580e-01 3.49492580e-01 3.49492580e-01 3.49492580e-01
      2.66723871e-01 3.07875842e-01 1.61622435e-01 3.07875842e-01
      3.07875842e-01 2.49572024e-01 3.07875842e-01 3.07875842e-01
      3.07875842e-01 3.07875842e-01 3.07875842e-01 2.81200230e-01
      1.96286142e-01 3.51289600e-01 2.21087188e-01 3.51289600e-01
      3.20815474e-01 3.17523479e-01 2.81450152e-01 3.51289600e-01
      5.06974421e-02 3.51289600e-01 3.51289600e-01 8.08239430e-02
      4.42462265e-01 1.57410368e-01 1.21012419e-01 4.42462265e-01
      2.08262846e-01 9.76673439e-02 4.42462265e-01 2.24336922e-01
      9.43427682e-02 4.42462265e-01 1.92063421e-01 1.55044213e-01
      3.75170559e-01 1.47764072e-01 3.56149942e-01 1.36202678e-01
      1.97337911e-01 3.75170559e-01 3.75170559e-01 1.18944034e-01
      3.75170559e-01 2.14163914e-01 1.62181899e-01 3.75170559e-01
      1.34066552e-01 1.57391712e-01 3.76668066e-01 3.01618159e-01
      3.12238872e-01 3.76668066e-01 1.03232928e-01 1.84932396e-01
      3.76668066e-01 1.03793554e-01 3.76668066e-01 3.76668066e-01
      3.04425478e-01 3.04425478e-01 3.04425478e-01 2.52410650e-01
      3.04425478e-01 3.04425478e-01 3.04425478e-01 3.04425478e-01
      2.34732479e-01 2.09937036e-01 3.04425478e-01 3.04425478e-01
      8.69887397e-02 3.27973306e-01 1.52303457e-01 3.27973306e-01
      3.27973306e-01 3.19196373e-01 5.95094115e-02 3.27973306e-01
      3.27973306e-01 3.27973306e-01 3.27973306e-01 3.27973306e-01
      3.88791233e-01 1.87688306e-01 1.69759795e-01 3.88791233e-01
      1.73507214e-01 1.26695499e-01 3.88791233e-01 2.66438007e-01
      2.75677472e-01 3.88791233e-01 3.41752470e-01 1.32278919e-01
      3.55529517e-01 1.04763038e-01 3.55529517e-01 1.35395408e-01
      1.31954804e-01 3.55529517e-01 3.55529517e-01 1.77751467e-01
      3.55529517e-01 1.82640359e-01 3.55482817e-01 3.55529517e-01
      1.11857727e-01 1.46534294e-01 3.34174901e-01 2.70157874e-01
      3.34174901e-01 3.34174901e-01 1.70410857e-01 2.80965000e-01
      3.34174901e-01 3.34174901e-01 3.34174901e-01 3.34174901e-01
      6.89823404e-02 3.50689650e-01 3.50689650e-01 6.97794035e-02
      3.50689650e-01 3.50689650e-01 2.47828793e-02 3.50689650e-01
      3.50689650e-01 4.88699637e-02 3.50689650e-01 3.50689650e-01
      1.39096484e-01 2.21512824e-01 3.27116042e-01 3.27116042e-01
      3.27116042e-01 3.27116042e-01 9.84115228e-02 2.50182986e-01
      3.27116042e-01 3.27116042e-01 3.27116042e-01 3.27116042e-01
      3.15843940e-01 3.15843940e-01 2.14844540e-01 3.15843940e-01
      3.15843940e-01 2.94093937e-01 3.13999712e-01 2.27267027e-01
      3.15843940e-01 3.15843940e-01 1.25087500e-01 3.15843940e-01
      3.28689545e-01 1.35814965e-01 3.28689545e-01 3.28689545e-01
      3.28689545e-01 3.28689545e-01 3.28689545e-01 2.19845120e-02
      3.28689545e-01 3.28689545e-01 7.38615394e-02 3.28689545e-01
      2.69516200e-01 3.20041955e-01 3.20041955e-01 3.20041955e-01
      3.10346216e-01 3.20041955e-01 3.20041955e-01 1.61053360e-01
      2.92048663e-01 3.20041955e-01 2.73640364e-01 1.64856791e-01</_>
    <_>
      3.52880836e-01 4.40156506e-03 3.52880836e-01 3.52880836e-01
      7.47362757e-03 3.52880836e-01 3.52880836e-01 2.69822590e-03
      3.52880836e-01 3.52880836e-01 1.38866836e-02 3.52880836e-01
      3.49243164e-01 5.33545110e-03 3.49243164e-01 3.49243164e-01
      6.97444007e-03 3.49243164e-01 3.49243164e-01 7.18033537e-02
      3.49243164e-01 3.49243164e-01 1.24545120e-01 3.49243164e-01
      3.51748973e-01 1.09220454e-02 3.51748973e-01 3.51748973e-01
      1.54202404e-02 3.51748973e-01 3.51748973e-01 6.74045235e-02
      3.51748973e-01 3.51748973e-01 4.20290977e-02 3.51748973e-01
      3.52744669e-01 7.45222624e-03 3.52744669e-01 3.52744669e-01
      1.67795569e-02 3.52744669e-01 3.52744669e-01 2.39837151e-02
      3.52744669e-01 3.52744669e-01 1.15345186e-02 3.52744669e-01
      3.52709740e-01 2.55944394e-02 3.52709740e-01 3.52709740e-01
      2.41997242e-02 3.52709740e-01 3.52709740e-01 1.36394263e-03
      3.52709740e-01 3.52709740e-01 3.16365476e-04 3.52709740e-01
      3.59476000e-01 3.11195590e-02 3.59476000e-01 3.37829024e-01
      1.29316926e-01 3.59476000e-01 2.34986722e-01 1.70662269e-01
      3.59476000e-01 7.00460300e-02 3.59476000e-01 3.59476000e-01
      1.99393883e-01 3.36817950e-01 3.36817950e-01 2.17616677e-01
      3.36817950e-01 3.36817950e-01 2.76413988e-02 3.36817950e-01
      3.36817950e-01 3.44253965e-02 3.36817950e-01 3.36817950e-01
      2.35488340e-01 2.18976408e-01 3.74366730e-01 3.30019802e-01
      1.95205510e-01 3.74366730e-01 6.91865906e-02 2.20330253e-01
      3.74366730e-01 1.26401097e-01 3.40477616e-01 3.74366730e-01
      3.25191110e-01 1.79852962e-01 3.25191110e-01 3.25191110e-01
      1.34460345e-01 3.25191110e-01 1.08203128e-01 3.25191110e-01
      3.25191110e-01 2.97694504e-01 3.25191110e-01 3.25191110e-01
      3.38178247e-01 3.48975398e-02 3.38178247e-01 3.38178247e-01
      3.08611849e-03 3.38178247e-01 3.38178247e-01 2.82470882e-01
      3.38178247e-01 3.38178247e-01 2.62254886e-02 3.38178247e-01
      1.30712599e-01 2.98538834e-01 3.50032002e-01 3.90604101e-02
      3.50032002e-01 3.50032002e-01 1.21652603e-01 3.50032002e-01
      3.50032002e-01 1.27709284e-01 3.50032002e-01 3.50032002e-01
      2.73871999e-02 2.75386453e-01 3.29541057e-01 4.14054617e-02
      2.34905377e-01 3.29541057e-01 3.29541057e-01 3.29541057e-01
      3.21185857e-01 3.29541057e-01 3.29363853e-01 3.29541057e-01
      4.52850163e-02 1.29394442e-01 4.06494826e-01 1.64522335e-01
      2.34698221e-01 4.06494826e-01 2.75035799e-01 1.28007442e-01
      4.06494826e-01 3.23898613e-01 1.92618132e-01 4.06494826e-01
      2.06062824e-01 3.26134175e-01 2.99536139e-01 3.26134175e-01
      3.26134175e-01 1.24940775e-01 3.26134175e-01 3.26134175e-01
      3.12414050e-01 3.26134175e-01 3.26134175e-01 8.24633092e-02
      3.08514476e-01 3.08514476e-01 2.99525023e-01 3.08514476e-01
      1.14868999e-01 2.89913058e-01 3.08514476e-01 3.08514476e-01
      2.67671287e-01 3.08514476e-01 3.08514476e-01 2.68405139e-01
      1.09547488e-01 3.71462882e-01 2.75414824e-01 1.74078643e-01
      3.95637691e-01 2.89874047e-01 1.44489273e-01 3.95637691e-01
      2.64621258e-01 1.34876341e-01 3.95637691e-01 2.77844846e-01
      2.67349005e-01 3.43924820e-01 1.06630370e-01 3.43924820e-01
      3.43924820e-01 3.19849908e-01 6.72502667e-02 3.43924820e-01
      2.97028542e-01 9.46578905e-02 3.43924820e-01 3.43924820e-01
      2.47275889e-01 1.60636827e-01 4.02852058e-01 1.62706345e-01
      2.28870049e-01 4.02852058e-01 1.33722067e-01 2.54119873e-01
      4.02852058e-01 8.65048394e-02 3.01778913e-01 4.02852058e-01
      2.38173038e-01 3.42006952e-01 3.42006952e-01 2.69831002e-01
      3.42006952e-01 2.07662001e-01 2.18965001e-02 3.42006952e-01
      3.42006952e-01 6.82895109e-02 3.42006952e-01 3.42006952e-01
      2.56900996e-01 3.25613886e-01 2.87241191e-01 2.68802792e-01
      3.25613886e-01 2.19433993e-01 1.61473721e-01 3.25613886e-01
      3.25613886e-01 2.56153315e-01 3.25613886e-01 3.25613886e-01
      1.17624544e-01 3.60830337e-01 2.00445548e-01 8.79734904e-02
      3.60830337e-01 3.06933999e-01 1.39075115e-01 3.60830337e-01
      3.31494421e-01 2.45377436e-01 3.60830337e-01 3.60830337e-01
      2.77819764e-02 3.15515846e-01 3.15515846e-01 2.39380319e-02
      3.15515846e-01 3.15515846e-01 3.15515846e-01 3.15515846e-01
      3.15515846e-01 3.15515846e-01 3.15515846e-01 3.15515846e-01
      6.16880469e-02 2.00738683e-01 3.87427717e-01 1.22063920e-01
      2.53470719e-01 3.87427717e-01 2.12085024e-01 2.18237355e-01
      3.87427717e-01 3.64416629e-01 2.16963395e-01 3.87427717e-01
      8.61604363e-02 3.47864866e-01 3.38598400e-01 1.36469379e-01
      3.47864866e-01 2.41730258e-01 3.47864866e-01 3.47864866e-01
      2.59295046e-01 3.47864866e-01 3.47864866e-01 6.40364438e-02
      2.24496678e-01 3.66160899e-01 2.93283582e-01 2.08942667e-01
      3.66160899e-01 2.10262433e-01 3.66160899e-01 3.66160899e-01
      1.28947869e-01 2.57676452e-01 3.66160899e-01 1.36626527e-01
      1.48746759e-01 4.04526919e-01 2.27209672e-01 2.67547190e-01
      4.04526919e-01 2.28485197e-01 2.29178250e-01 4.04526919e-01
      1.33917242e-01 1.71373054e-01 4.04526919e-01 2.09830448e-01
      3.33674580e-01 3.33674580e-01 8.69019851e-02 3.33674580e-01
      3.33674580e-01 3.17376494e-01 1.28185600e-01 3.33674580e-01
      2.31291786e-01 1.97706014e-01 3.33674580e-01 3.33674580e-01
      2.82338828e-01 1.35434479e-01 4.02780980e-01 2.35265166e-01
      1.79070979e-01 4.02780980e-01 1.56898692e-01 2.30113477e-01
      4.02780980e-01 5.40793501e-02 2.84742713e-01 4.02780980e-01
      2.96916038e-01 3.42427850e-01 2.67278045e-01 3.04317921e-01
      3.50029558e-01 8.86371136e-02 3.84661667e-02 3.50029558e-01
      3.50029558e-01 7.14159161e-02 3.50029558e-01 3.50029558e-01
      2.79513687e-01 3.76606733e-01 1.34229809e-01 2.29667366e-01
      3.76606733e-01 1.42386913e-01 1.12604827e-01 3.76606733e-01
      3.42346221e-01 2.65965253e-01 3.76606733e-01 2.43149936e-01
      1.15786217e-01 4.08456385e-01 1.74392924e-01 5.33540286e-02
      4.08456385e-01 3.31975043e-01 1.66585505e-01 4.08456385e-01
      1.70393765e-01 2.04724625e-01 4.08456385e-01 2.70190209e-01
      1.87569782e-02 3.40342969e-01 3.40342969e-01 4.11145650e-02
      3.40342969e-01 3.40342969e-01 1.93507940e-01 3.40342969e-01
      2.71815777e-01 2.69062310e-01 3.40342969e-01 3.40342969e-01
      5.91342188e-02 2.13819951e-01 4.21757936e-01 6.56484291e-02
      1.99354589e-01 4.21757936e-01 1.53841659e-01 2.29357451e-01
      4.21757936e-01 2.89322138e-01 1.76126972e-01 4.21757936e-01
      3.49323228e-02 3.48577350e-01 3.48577350e-01 5.46369180e-02
      3.48577350e-01 2.73660928e-01 3.40608716e-01 3.48577350e-01
      2.60331690e-01 3.48577350e-01 3.48577350e-01 6.78059533e-02
      9.87623259e-02 3.93881351e-01 2.53160477e-01 1.25522494e-01
      3.53000760e-01 2.75471658e-01 2.65358627e-01 3.93881351e-01
      1.68425128e-01 1.99553147e-01 3.93881351e-01 3.19279909e-01
      1.50355130e-01 4.18950319e-01 1.08491950e-01 2.73977429e-01
      4.18950319e-01 1.34687990e-01 1.08504876e-01 4.18950319e-01
      1.94858328e-01 2.44247615e-01 4.18950319e-01 2.38234714e-01
      3.22473586e-01 3.22473586e-01 6.82857111e-02 3.22473586e-01
      3.22473586e-01 3.04690540e-01 2.60963380e-01 3.22473586e-01
      1.35419786e-01 2.91399866e-01 3.22473586e-01 3.22473586e-01
      2.65936196e-01 1.34995848e-01 4.02929366e-01 2.60411829e-01
      1.30280077e-01 4.02929366e-01 1.86628655e-01 2.46462837e-01
      4.02929366e-01 1.04096957e-01 2.57726401e-01 4.02929366e-01
      3.33948970e-01 3.33948970e-01 2.69094169e-01 3.33948970e-01
      3.33948970e-01 6.60735071e-02 8.71913582e-02 3.33948970e-01
      3.33948970e-01 1.41803741e-01 3.33948970e-01 3.33948970e-01
      2.24833146e-01 3.31738323e-01 1.49316192e-01 1.48694083e-01
      3.31738323e-01 2.51211107e-01 3.31738323e-01 3.31738323e-01
      3.27945173e-01 3.31738323e-01 3.31738323e-01 2.66032457e-01
      1.19171791e-01 3.98921788e-01 1.42969429e-01 1.42694548e-01
      3.98921788e-01 2.91611195e-01 1.58048421e-01 3.98921788e-01
      1.44187465e-01 1.20463148e-01 3.98921788e-01 3.98921788e-01
      5.83739206e-02 3.48010629e-01 3.48010629e-01 2.74116434e-02
      3.48010629e-01 3.48010629e-01 9.95058864e-02 3.48010629e-01
      3.48010629e-01 1.16496965e-01 3.48010629e-01 3.48010629e-01
      4.47957851e-02 2.01760635e-01 4.34928417e-01 5.88119924e-02
      2.25369439e-01 4.34928417e-01 7.95879737e-02 2.38339439e-01
      4.34928417e-01 1.75496429e-01 2.19320267e-01 4.34928417e-01
      1.58689357e-02 3.43664497e-01 3.43664497e-01 6.47436604e-02
      3.43664497e-01 3.43664497e-01 2.14568213e-01 3.43664497e-01
      3.26916784e-01 3.23508650e-01 3.43664497e-01 1.60994172e-01
      2.93888062e-01 3.07964414e-01 3.01557779e-01 2.72567183e-01
      3.07964414e-01 1.76783621e-01 3.07964414e-01 3.07964414e-01
      2.31484547e-01 3.07964414e-01 3.07964414e-01 3.02378237e-01
      1.63834587e-01 3.44027877e-01 1.57077149e-01 2.73749560e-01
      3.78470391e-01 2.02291638e-01 2.10371822e-01 3.78470391e-01
      2.51475871e-01 3.43465805e-01 3.78470391e-01 2.35166460e-01
      3.16600293e-01 3.16600293e-01 1.24218822e-01 3.16600293e-01
      3.05214286e-01 3.16600293e-01 3.16600293e-01 3.16600293e-01
      8.00825581e-02 3.16600293e-01 3.16600293e-01 2.82756299e-01
      2.48235703e-01 1.51735798e-01 3.94148201e-01 2.31915057e-01
      1.38393626e-01 3.94148201e-01 2.85957426e-01 2.26934701e-01
      3.94148201e-01 1.47636667e-01 2.49000669e-01 3.94148201e-01
      3.23731631e-01 3.23731631e-01 2.46988773e-01 3.23731631e-01
      3.23731631e-01 4.75636162e-02 1.67958453e-01 3.23731631e-01
      3.23731631e-01 2.58596331e-01 3.23731631e-01 3.23731631e-01
      3.06160301e-01 3.06160301e-01 1.42714962e-01 3.06160301e-01
      1.98070720e-01 3.06160301e-01 3.06160301e-01 3.06160301e-01
      3.06160301e-01 3.06160301e-01 3.06160301e-01 3.06160301e-01
      1.19967826e-01 4.03097063e-01 1.55156344e-01 1.57226607e-01
      4.03097063e-01 2.43014812e-01 2.50478148e-01 4.03097063e-01
      1.45346597e-01 1.74472287e-01 4.03097063e-01 3.30872208e-01
      8.47892836e-02 3.60625893e-01 2.60634392e-01 7.88565353e-02
      3.60625893e-01 3.60625893e-01 5.67050017e-02 3.60625893e-01
      3.60625893e-01 3.85536291e-02 3.60625893e-01 3.60625893e-01
      1.00890711e-01 2.43537873e-01 4.28769082e-01 7.22530633e-02
      2.08664656e-01 4.28769082e-01 6.04900420e-02 2.77461350e-01
      4.28769082e-01 1.35414273e-01 2.07637399e-01 4.28769082e-01
      1.76220052e-02 3.03815722e-01 3.57504398e-01 2.85576545e-02
      3.57504398e-01 3.57504398e-01 1.21531442e-01 3.57504398e-01
      3.57504398e-01 2.02049211e-01 3.57504398e-01 2.83809781e-01
      7.85429403e-02 3.77247244e-01 3.77247244e-01 1.57350928e-01
      3.77247244e-01 2.36316845e-01 2.63073206e-01 3.77247244e-01
      2.19040051e-01 1.78106517e-01 3.77247244e-01 2.21295565e-01
      2.37172961e-01 3.71831983e-01 1.50375247e-01 1.51765570e-01
      3.71831983e-01 3.07303250e-01 1.57647565e-01 3.71831983e-01
      1.55673876e-01 3.59891444e-01 3.71831983e-01 2.61358500e-01
      1.70721143e-01 3.23407978e-01 2.22404078e-01 3.23407978e-01
      3.23407978e-01 3.23407978e-01 3.23407978e-01 3.23407978e-01
      1.12594672e-01 3.23407978e-01 3.23407978e-01 2.62183487e-01
      2.07800210e-01 1.88017324e-01 3.85126203e-01 2.00586006e-01
      1.21363811e-01 3.85126203e-01 3.82648975e-01 2.26384863e-01
      3.85126203e-01 1.95250779e-01 1.83235094e-01 3.85126203e-01
      3.24019939e-01 2.65287876e-01 2.53960222e-01 3.28255534e-01
      3.28255534e-01 5.58230877e-02 2.69075841e-01 3.28255534e-01
      3.28255534e-01 3.28255534e-01 3.28255534e-01 1.86627001e-01
      3.45925659e-01 3.45925659e-01 8.97037163e-02 2.91036874e-01
      3.45925659e-01 1.57014534e-01 3.45925659e-01 3.45925659e-01
      1.60012037e-01 3.45925659e-01 3.45925659e-01 1.26036495e-01
      8.16225857e-02 3.96491855e-01 1.47367835e-01 2.24892214e-01
      3.96491855e-01 3.26573044e-01 5.88715896e-02 3.96491855e-01
      1.37241572e-01 4.58591767e-02 3.96491855e-01 3.96491855e-01
      1.58629104e-01 3.61208558e-01 2.14989886e-01 1.66591778e-01
      3.61208558e-01 3.37370396e-01 1.92131549e-02 3.61208558e-01
      3.61208558e-01 1.53933037e-02 3.61208558e-01 3.61208558e-01
      1.43763721e-01 2.57901758e-01 4.37613964e-01 6.70618713e-02
      1.90762907e-01 4.37613964e-01 4.36488427e-02 2.41355821e-01
      4.37613964e-01 7.68703148e-02 1.88331589e-01 4.37613964e-01
      3.45368125e-02 2.90485978e-01 3.57493907e-01 4.53044698e-02
      3.57493907e-01 3.57493907e-01 5.46332747e-02 3.57274055e-01
      3.57493907e-01 1.06582880e-01 3.57493907e-01 3.57493907e-01
      9.45552588e-02 3.62404913e-01 3.16854447e-01 2.05931261e-01
      3.04934949e-01 1.70442685e-01 1.68952227e-01 3.62404913e-01
      3.44506979e-01 3.38272899e-01 3.62404913e-01 2.58703589e-01
      9.64767635e-02 3.52320969e-01 1.42204866e-01 5.74563071e-02
      3.52320969e-01 3.52320969e-01 1.83281660e-01 3.52320969e-01
      2.94309646e-01 3.14098507e-01 3.52320969e-01 3.52320969e-01
      2.14073360e-02 3.93524230e-01 3.93524230e-01 3.41314450e-02
      2.85672754e-01 3.93524230e-01 1.82333902e-01 1.55683428e-01
      3.93524230e-01 2.49955058e-01 1.36269212e-01 3.93524230e-01
      5.58292009e-02 1.02735095e-01 4.18573350e-01 1.65864125e-01
      6.10351600e-02 4.18573350e-01 2.62090355e-01 7.33055994e-02
      4.18573350e-01 4.18573350e-01 2.87711285e-02 4.18573350e-01
      3.09149086e-01 1.96703389e-01 3.35320175e-01 3.56538326e-01
      3.56538326e-01 1.02608949e-01 3.56538326e-01 5.99866547e-02
      3.56538326e-01 3.56538326e-01 2.94356465e-01 1.15594752e-01
      3.46955329e-01 3.46955329e-01 9.28705409e-02 3.46955329e-01
      3.38085771e-01 1.19942158e-01 3.46955329e-01 3.46955329e-01
      9.01220813e-02 3.46955329e-01 3.33426476e-01 1.32880241e-01
      2.45816484e-01 3.23346078e-01 3.23346078e-01 3.23346078e-01
      3.00379515e-01 3.23346078e-01 2.21764535e-01 1.73983261e-01
      3.23346078e-01 3.23346078e-01 1.86540142e-01 3.23346078e-01
      3.49215925e-01 1.27984956e-01 3.49215925e-01 3.49215925e-01
      2.44937733e-01 3.49215925e-01 1.98029101e-01 9.69958678e-02
      3.49215925e-01 3.08056951e-01 2.11903006e-01 3.49215925e-01
      3.48819733e-01 1.23319715e-01 3.48819733e-01 3.48819733e-01
      5.55148832e-02 3.48819733e-01 3.29744846e-01 1.13028795e-01
      3.48819733e-01 3.48819733e-01 7.06520155e-02 3.48819733e-01
      3.49527270e-01 5.62896021e-02 3.49527270e-01 3.49527270e-01
      2.38068715e-01 2.17485294e-01 3.49527270e-01 9.59153771e-02
      3.49527270e-01 3.49527270e-01 2.59831458e-01 2.82196313e-01
      3.50729913e-01 3.50729913e-01 1.33386642e-01 3.50729913e-01
      3.50729913e-01 1.60261855e-01 3.50729913e-01 3.14319372e-01
      1.94693938e-01 3.50729913e-01 2.53649950e-01 1.17942028e-01</_>
    <_>
      3.29245865e-01 2.19134971e-01 3.29245865e-01 3.29245865e-01
      3.29245865e-01 3.29245865e-01 2.50977874e-01 3.29245865e-01
      6.94967359e-02 3.29245865e-01 3.29245865e-01 1.16823189e-01
      3.70261997e-01 2.85299361e-01 1.49001867e-01 3.70261997e-01
      2.24358574e-01 1.21102266e-01 3.70261997e-01 3.70261997e-01
      1.35446906e-01 3.70261997e-01 3.27621132e-01 1.28645897e-01
      3.75930667e-01 1.71890676e-01 1.45551667e-01 3.75930667e-01
      1.48335278e-01 3.75930667e-01 3.75930667e-01 1.90208107e-01
      1.46957248e-01 3.75930667e-01 1.33380458e-01 3.75930667e-01
      2.25025356e-01 1.61454231e-01 3.75868529e-01 1.67033315e-01
      2.69076288e-01 3.75868529e-01 2.41677850e-01 1.65963426e-01
      3.75868529e-01 1.83847070e-01 3.66576731e-01 3.75868529e-01
      1.21863693e-01 2.84136176e-01 3.47084850e-01 2.03745350e-01
      3.47084850e-01 3.47084850e-01 9.77611914e-02 3.47084850e-01
      3.47084850e-01 8.12613219e-02 3.47084850e-01 3.47084850e-01
      1.10637158e-01 3.73738974e-01 1.18456379e-01 9.72286463e-02
      3.73738974e-01 3.73738974e-01 5.00047728e-02 3.73738974e-01
      1.11817151e-01 3.27797949e-01 3.73738974e-01 3.73738974e-01
      2.35793129e-01 3.45768899e-01 3.45768899e-01 3.45768899e-01
      2.00193077e-01 1.78162202e-01 3.45768899e-01 2.73940086e-01
      3.45768899e-01 3.45768899e-01 2.14406013e-01 1.75437003e-01
      3.84920597e-01 1.19713299e-01 9.57050994e-02 3.84920597e-01
      7.58818537e-02 3.84920597e-01 3.84920597e-01 1.89800948e-01
      9.14435238e-02 3.84920597e-01 1.83129385e-01 3.84920597e-01
      1.41005963e-01 1.03399776e-01 4.43168253e-01 1.64829731e-01
      1.86689571e-01 4.43168253e-01 1.50056422e-01 1.73181444e-01
      4.43168253e-01 1.70313090e-01 1.89392760e-01 4.43168253e-01
      3.12158197e-01 3.12158197e-01 3.12158197e-01 2.67325580e-01
      3.12158197e-01 9.14574787e-02 3.12158197e-01 2.45519638e-01
      3.12158197e-01 2.77906120e-01 3.12158197e-01 3.12158197e-01
      6.28012195e-02 3.84139687e-01 4.96165082e-02 3.84139687e-01
      3.84139687e-01 8.28278363e-02 6.47537336e-02 3.84139687e-01
      2.52061427e-01 1.72592595e-01 3.84139687e-01 3.84139687e-01
      3.35085601e-01 3.35085601e-01 9.87155288e-02 3.35085601e-01
      1.90492138e-01 1.00219518e-01 3.27691466e-01 3.35085601e-01
      3.35085601e-01 3.35085601e-01 2.27683544e-01 3.28116268e-01
      3.78664702e-01 1.63312614e-01 8.65099132e-02 3.78664702e-01
      1.52232632e-01 3.78664702e-01 3.78664702e-01 1.68495327e-01
      1.62208930e-01 3.78664702e-01 1.54476717e-01 3.78664702e-01
      1.77144513e-01 1.45540401e-01 4.17669535e-01 1.16559446e-01
      2.40032151e-01 4.17669535e-01 2.35235825e-01 1.48851573e-01
      4.17669535e-01 1.71610132e-01 2.59479940e-01 4.17669535e-01
      9.06739160e-02 3.08310628e-01 3.45059127e-01 5.31936474e-02
      3.45059127e-01 3.45059127e-01 2.11293325e-01 3.45059127e-01
      3.45059127e-01 2.72657305e-01 3.45059127e-01 2.38880858e-01
      6.41890019e-02 3.83486271e-01 2.36197725e-01 8.90752152e-02
      3.83486271e-01 3.83486271e-01 1.49974167e-01 3.83486271e-01
      4.39365543e-02 3.83486271e-01 3.83486271e-01 1.46737024e-01
      2.46841386e-01 3.39156806e-01 3.57100934e-01 3.57100934e-01
      1.55677557e-01 3.03688109e-01 3.57100934e-01 2.89662242e-01
      1.54961497e-01 3.57100934e-01 2.49870241e-01 1.53543189e-01
      3.71296734e-01 1.50875628e-01 1.29606724e-01 3.71296734e-01
      1.87545002e-01 3.71296734e-01 3.71296734e-01 1.95997491e-01
      1.09240077e-01 3.71296734e-01 2.09856674e-01 3.71296734e-01
      2.00214729e-01 1.61389291e-01 4.12247330e-01 1.69338718e-01
      1.81951404e-01 4.12247330e-01 2.35476404e-01 2.14792311e-01
      4.12247330e-01 1.58873081e-01 2.47690350e-01 4.12247330e-01
      3.22381556e-01 3.06960851e-01 3.22381556e-01 3.22381556e-01
      3.22381556e-01 1.02636747e-01 2.09008664e-01 2.64758050e-01
      3.22381556e-01 2.25230768e-01 3.22381556e-01 3.22381556e-01
      1.92101300e-01 3.91692370e-01 4.29591015e-02 3.91692370e-01
      3.91692370e-01 4.17483635e-02 1.82496265e-01 3.91692370e-01
      1.28616676e-01 1.09713949e-01 3.91692370e-01 3.55804533e-01
      3.24901193e-01 3.24901193e-01 5.00589870e-02 3.24901193e-01
      3.04812163e-01 1.16351590e-01 2.30936229e-01 3.24901193e-01
      3.24901193e-01 3.24901193e-01 3.24901193e-01 3.09099287e-01
      3.75535250e-01 1.89704046e-01 9.88761187e-02 3.75535250e-01
      1.17179319e-01 3.75535250e-01 3.75535250e-01 2.17832088e-01
      1.59645960e-01 3.75535250e-01 1.32872611e-01 3.75535250e-01
      2.15802327e-01 1.52688846e-01 4.23910618e-01 1.27136618e-01
      2.15709403e-01 4.23910618e-01 2.41108730e-01 1.30425975e-01
      4.23910618e-01 1.67787567e-01 2.02703238e-01 4.23910618e-01
      7.33365044e-02 3.36778790e-01 3.36778790e-01 2.85658482e-02
      3.36778790e-01 3.36778790e-01 2.71573842e-01 3.36778790e-01
      3.36778790e-01 2.97164083e-01 3.36778790e-01 1.85586363e-01
      1.25288963e-01 3.85806739e-01 1.13858111e-01 1.78313091e-01
      3.85806739e-01 3.85806739e-01 1.32706210e-01 3.85806739e-01
      4.07950170e-02 3.85806739e-01 3.85806739e-01 1.52751178e-01
      2.99133092e-01 3.03943396e-01 3.48507077e-01 3.48507077e-01
      1.97136417e-01 2.58304775e-01 3.48507077e-01 3.48507077e-01
      1.30663648e-01 3.48507077e-01 2.56056696e-01 1.38375059e-01
      3.66750538e-01 1.85452655e-01 1.05949268e-01 3.66750538e-01
      1.36645243e-01 3.66750538e-01 3.66750538e-01 2.55601227e-01
      1.10251434e-01 3.66750538e-01 2.17997551e-01 3.66750538e-01
      1.96542308e-01 1.20453112e-01 4.23749596e-01 1.44877404e-01
      1.67188093e-01 4.23749596e-01 2.42814213e-01 1.66516975e-01
      4.23749596e-01 1.76556826e-01 2.39945933e-01 4.23749596e-01
      3.33902210e-01 2.07613006e-01 3.33902210e-01 3.33902210e-01
      3.33902210e-01 1.86948225e-01 1.55794472e-01 2.91984171e-01
      3.33902210e-01 1.69262365e-01 3.33902210e-01 3.33902210e-01
      5.99620827e-02 4.21049178e-01 7.07264617e-02 2.67094970e-01
      4.21049178e-01 1.09223053e-01 3.85641530e-02 4.21049178e-01
      1.16269082e-01 5.00910655e-02 4.21049178e-01 4.21049178e-01
      3.36239547e-01 3.36239547e-01 1.06168792e-01 3.36239547e-01
      2.72781014e-01 1.34331048e-01 2.05558509e-01 3.36239547e-01
      3.36239547e-01 3.36239547e-01 2.53006309e-01 3.29098254e-01
      3.81465226e-01 1.68411881e-01 9.58608910e-02 3.81465226e-01
      1.37701541e-01 3.81465226e-01 3.81465226e-01 1.71400309e-01
      9.88953635e-02 3.81465226e-01 1.65598065e-01 3.81465226e-01
      2.14506313e-01 1.20111816e-01 4.27539200e-01 1.29362464e-01
      1.77123457e-01 4.27539200e-01 2.61947095e-01 1.70137063e-01
      4.27539200e-01 1.61688983e-01 1.79768831e-01 4.27539200e-01
      1.07010864e-01 3.30195874e-01 3.30195874e-01 8.15192387e-02
      3.30195874e-01 3.30195874e-01 3.30195874e-01 3.01083773e-01
      3.30195874e-01 3.30195874e-01 3.30195874e-01 1.25371799e-01
      4.90353517e-02 3.52855206e-01 1.80349663e-01 2.17228308e-01
      3.83503735e-01 3.32332224e-01 1.16657242e-01 3.83503735e-01
      2.52273679e-01 3.83503735e-01 3.83503735e-01 1.16393059e-01
      3.68823856e-01 2.66695648e-01 3.08776975e-01 3.68823856e-01
      1.53186709e-01 2.14560777e-01 3.68823856e-01 3.68823856e-01
      5.57407513e-02 3.68823856e-01 2.50755161e-01 1.19174518e-01
      3.60904068e-01 1.80818498e-01 8.16884860e-02 3.60904068e-01
      2.32812852e-01 3.60904068e-01 3.60904068e-01 1.99498504e-01
      1.28033474e-01 3.60904068e-01 2.55188793e-01 3.60904068e-01
      1.62165806e-01 1.94472626e-01 4.23987359e-01 1.37719810e-01
      2.00093061e-01 4.23987359e-01 2.08966598e-01 1.54948875e-01
      4.23987359e-01 1.75493121e-01 2.34751359e-01 4.23987359e-01
      2.71490306e-01 1.66646525e-01 3.37103188e-01 3.37103188e-01
      3.37103188e-01 2.66405791e-01 1.22570314e-01 3.37103188e-01
      3.37103188e-01 1.16996571e-01 3.37103188e-01 3.37103188e-01
      5.81574440e-02 4.20425326e-01 7.44651482e-02 1.76164657e-01
      4.20425326e-01 1.59948424e-01 1.77449733e-01 4.20425326e-01
      6.59239143e-02 1.13821298e-01 4.20425326e-01 4.17655200e-01
      2.73789644e-01 3.38760585e-01 1.70403838e-01 3.38760585e-01
      2.76640981e-01 1.58311278e-01 2.65078455e-01 3.38760585e-01
      3.38760585e-01 3.38760585e-01 2.24826634e-01 3.10511172e-01
      3.85452509e-01 1.23614304e-01 1.02045551e-01 3.85452509e-01
      1.23122573e-01 3.85452509e-01 3.85452509e-01 1.44123271e-01
      9.34133306e-02 3.85452509e-01 1.85355976e-01 3.85452509e-01
      2.15891019e-01 8.31081346e-02 4.37190056e-01 1.35182440e-01
      1.48792356e-01 4.37190056e-01 2.51139462e-01 1.50632441e-01
      4.37190056e-01 1.55538365e-01 1.64953485e-01 4.37190056e-01
      1.58749640e-01 3.37401837e-01 3.37401837e-01 1.49535552e-01
      3.37401837e-01 1.78306147e-01 3.37401837e-01 2.88017601e-01
      3.37401837e-01 3.37401837e-01 3.37401837e-01 1.93492755e-01
      2.72859782e-01 3.76394600e-01 4.52511162e-02 3.71570021e-01
      3.76394600e-01 1.88972607e-01 1.75388396e-01 3.76394600e-01
      5.29790856e-02 3.76394600e-01 3.76394600e-01 6.34985566e-02
      3.68723184e-01 2.85364866e-01 2.08972842e-01 3.68723184e-01
      1.68010294e-01 1.71114936e-01 3.68723184e-01 3.68723184e-01
      6.11111671e-02 3.68723184e-01 3.18094790e-01 1.70302495e-01
      3.82146925e-01 1.20578982e-01 1.17245525e-01 3.82146925e-01
      1.86834842e-01 3.51799875e-01 3.82146925e-01 1.49126858e-01
      1.73814401e-01 3.82146925e-01 1.63077578e-01 3.82146925e-01
      2.21118972e-01 1.48735598e-01 4.13896799e-01 1.32156774e-01
      1.81334496e-01 4.13896799e-01 3.00664812e-01 1.44302621e-01
      4.13896799e-01 1.78106353e-01 2.15209663e-01 4.13896799e-01
      1.75152943e-01 1.98396951e-01 3.55107874e-01 1.69836804e-01
      3.55107874e-01 3.55107874e-01 1.05816774e-01 3.55107874e-01
      3.55107874e-01 6.04912788e-02 3.55107874e-01 3.55107874e-01
      4.02341187e-02 3.95390600e-01 1.50720879e-01 8.96192715e-02
      3.95390600e-01 3.49169344e-01 4.66193296e-02 3.95390600e-01
      1.52701929e-01 1.86020523e-01 3.95390600e-01 3.95390600e-01
      1.74939781e-01 3.27551156e-01 2.66837537e-01 3.27551156e-01
      2.44218916e-01 2.43238106e-01 3.27551156e-01 3.27551156e-01
      3.27551156e-01 3.27551156e-01 2.07803220e-01 2.98651189e-01
      3.83694381e-01 1.11717962e-01 1.11243255e-01 3.83694381e-01
      1.04812972e-01 3.83694381e-01 3.83694381e-01 1.67023942e-01
      8.80111307e-02 3.83694381e-01 2.03356534e-01 3.83694381e-01
      2.25549340e-01 1.00519560e-01 4.27080393e-01 1.28476173e-01
      1.36019126e-01 4.27080393e-01 2.62613773e-01 1.95744008e-01
      4.27080393e-01 1.43937752e-01 2.05327481e-01 4.27080393e-01
      2.36005187e-01 3.21391881e-01 3.21391881e-01 2.86528826e-01
      3.21391881e-01 1.51942849e-01 3.21391881e-01 2.07253739e-01
      3.21391881e-01 3.21391881e-01 3.21391881e-01 2.64388889e-01
      8.40853974e-02 4.09367949e-01 4.00027297e-02 4.09367949e-01
      4.09367949e-01 1.09345645e-01 1.52021706e-01 4.09367949e-01
      3.99532057e-02 3.18042904e-01 4.09367949e-01 1.07306413e-01
      3.47339988e-01 3.46257061e-01 1.32024422e-01 3.47339988e-01
      2.34096497e-01 1.36703819e-01 3.47339988e-01 3.47339988e-01
      1.33402228e-01 3.47339988e-01 3.47339988e-01 2.09879667e-01
      3.87032747e-01 1.71950832e-01 9.06590000e-02 3.87032747e-01
      1.97272748e-01 2.68216908e-01 3.87032747e-01 2.06697851e-01
      1.63090855e-01 3.87032747e-01 1.70868397e-01 3.87032747e-01
      2.44807869e-01 1.98380038e-01 3.85253996e-01 1.30877793e-01
      2.41518930e-01 3.85253996e-01 3.21744621e-01 1.67011559e-01
      3.85253996e-01 1.60351977e-01 2.65701979e-01 3.85253996e-01
      1.26851737e-01 2.26856053e-01 3.55801433e-01 1.39721349e-01
      3.55801433e-01 3.55801433e-01 1.16200790e-01 3.55801433e-01
      3.55801433e-01 9.85025764e-02 3.55801433e-01 3.55801433e-01
      1.66623950e-01 3.33668560e-01 1.87308714e-01 7.82535002e-02
      3.33668560e-01 3.33668560e-01 3.33668560e-01 1.92397490e-01
      3.33668560e-01 3.33668560e-01 3.33668560e-01 3.33668560e-01
      1.39477834e-01 3.27444166e-01 3.27444166e-01 3.27444166e-01
      2.37911761e-01 2.89045930e-01 3.27444166e-01 2.87423611e-01
      3.27444166e-01 3.27444166e-01 2.11010411e-01 2.58203298e-01
      3.83879781e-01 1.54587910e-01 1.22613698e-01 3.83879781e-01
      1.07398637e-01 3.83879781e-01 3.83879781e-01 1.88967988e-01
      1.13983169e-01 3.83879781e-01 1.39971167e-01 3.74949872e-01
      2.34597847e-01 1.06759816e-01 4.18585509e-01 1.28061593e-01
      1.72505409e-01 4.18585509e-01 2.59801447e-01 1.46361962e-01
      4.18585509e-01 1.83253467e-01 2.44685605e-01 4.18585509e-01
      2.75595695e-01 2.76829004e-01 3.16201299e-01 3.16201299e-01
      3.16201299e-01 1.24782398e-01 3.03178281e-01 1.92048788e-01
      3.16201299e-01 3.16201299e-01 3.16201299e-01 3.16201299e-01
      3.39185864e-01 1.59233049e-01 3.02195370e-01 3.39185864e-01
      3.39185864e-01 2.11773425e-01 2.15589970e-01 3.39185864e-01
      2.14602396e-01 3.39185864e-01 3.39185864e-01 2.28627115e-01
      3.45998168e-01 3.45998168e-01 7.77128562e-02 3.45998168e-01
      2.76082665e-01 1.14650533e-01 3.21960777e-01 3.45998168e-01
      1.77827224e-01 3.45998168e-01 3.29955250e-01 2.41685539e-01
      3.90152276e-01 1.69647247e-01 1.28564626e-01 3.90152276e-01
      1.46439388e-01 3.25140387e-01 3.90152276e-01 1.41934246e-01
      1.62584111e-01 3.90152276e-01 1.30467489e-01 3.88788968e-01
      2.83799320e-01 1.10876739e-01 3.88860404e-01 1.94327220e-01
      2.19941571e-01 3.88860404e-01 3.88860404e-01 7.07693771e-02
      3.88860404e-01 1.82779819e-01 1.50543660e-01 3.88860404e-01
      1.29093438e-01 2.47848615e-01 3.47997338e-01 1.18749090e-01
      3.47997338e-01 3.47997338e-01 1.70739964e-01 3.07672769e-01
      3.47997338e-01 2.32163996e-01 3.47997338e-01 3.47997338e-01
      3.05914432e-02 3.05147588e-01 3.90398294e-01 9.89096463e-02
      3.90398294e-01 3.90398294e-01 6.34140745e-02 1.96074262e-01
      3.90398294e-01 2.54676133e-01 1.51279151e-01 3.90398294e-01
      1.78741559e-01 3.40763867e-01 3.45459789e-01 3.45459789e-01
      1.26716316e-01 3.45459789e-01 3.36187661e-01 5.53043373e-02
      3.45459789e-01 3.45459789e-01 1.69492029e-02 3.45459789e-01
      3.95559669e-01 7.05318898e-02 1.85880005e-01 3.95559669e-01
      1.37520611e-01 2.09658384e-01 3.95559669e-01 2.14513019e-02
      3.95559669e-01 3.95559669e-01 7.39339292e-02 3.24638247e-01
      3.49758536e-01 7.04163313e-02 3.69876713e-01 2.25146547e-01
      8.09672847e-02 3.69876713e-01 3.69876713e-01 4.46215346e-02
      3.52765262e-01 3.69876713e-01 3.59175578e-02 3.69876713e-01
      3.32888305e-01 1.30539164e-01 3.37202281e-01 3.37202281e-01
      3.37202281e-01 2.64419466e-01 3.37202281e-01 2.67622098e-02
      3.37202281e-01 3.37202281e-01 4.69494276e-02 3.37202281e-01</_>
    <_>
      3.24000776e-01 6.56372607e-02 3.24000776e-01 2.22431690e-01
      1.86380714e-01 3.24000776e-01 3.24000776e-01 2.61588961e-01
      3.24000776e-01 3.24000776e-01 3.24000776e-01 3.24000776e-01
      2.18174309e-01 2.11008415e-01 3.36807758e-01 3.36807758e-01
      2.05060452e-01 2.70428568e-01 3.36807758e-01 3.36807758e-01
      3.31673056e-01 3.36807758e-01 2.98579216e-01 1.51574656e-01
      3.51965874e-01 1.08590126e-01 2.99738437e-01 3.51965874e-01
      1.38338059e-01 3.51965874e-01 3.51965874e-01 1.95648342e-01
      2.38765955e-01 3.51965874e-01 1.92727178e-01 3.51965874e-01
      9.53052342e-02 1.79543674e-01 3.61809105e-01 2.28860825e-01
      3.29782307e-01 3.61809105e-01 9.88501310e-02 2.09627226e-01
      3.61809105e-01 2.92726219e-01 3.61809105e-01 3.61809105e-01
      3.03009003e-01 2.90729642e-01 2.63892591e-01 3.03009003e-01
      1.28371820e-01 3.03009003e-01 3.03009003e-01 3.03009003e-01
      3.03009003e-01 3.03009003e-01 3.03009003e-01 3.03009003e-01
      3.09400290e-01 3.91402751e-01 7.16288090e-02 3.91402751e-01
      3.91402751e-01 1.03723250e-01 1.03279293e-01 3.91402751e-01
      8.95735025e-02 2.05296084e-01 3.91402751e-01 2.40114629e-01
      3.54632109e-01 3.54632109e-01 1.02036320e-01 3.54632109e-01
      2.21211523e-01 1.31036431e-01 3.54632109e-01 3.54632109e-01
      2.40396798e-01 3.54632109e-01 2.92539865e-01 1.48278728e-01
      3.64476055e-01 1.59972787e-01 2.13757664e-01 2.94820070e-01
      1.65174291e-01 3.64476055e-01 3.64476055e-01 2.12245017e-01
      2.56226093e-01 3.64476055e-01 1.89630821e-01 3.64476055e-01
      7.91443288e-02 1.42591879e-01 3.80955428e-01 1.23165652e-01
      3.80955428e-01 3.80955428e-01 9.77836251e-02 1.22255601e-01
      3.80955428e-01 2.43223697e-01 3.80955428e-01 3.80955428e-01
      1.08395174e-01 3.72788578e-01 3.72788578e-01 1.06635444e-01
      3.72788578e-01 3.33154291e-01 2.28559703e-01 3.72788578e-01
      3.00800592e-01 1.08356886e-01 3.72788578e-01 1.13334738e-01
      7.02448264e-02 3.73069078e-01 1.27942249e-01 1.28054902e-01
      3.73069078e-01 3.73069078e-01 1.64454550e-01 3.73069078e-01
      1.56347230e-01 3.73069078e-01 3.73069078e-01 2.68324763e-01
      3.36076468e-01 3.36076468e-01 3.31666082e-01 3.36076468e-01
      1.88396230e-01 1.46243557e-01 3.36076468e-01 3.36076468e-01
      1.87761217e-01 3.36076468e-01 3.07237625e-01 1.49752542e-01
      3.57686222e-01 1.84855804e-01 1.79241315e-01 3.57686222e-01
      1.86946929e-01 3.57686222e-01 3.57686222e-01 1.99546874e-01
      2.13058755e-01 3.57686222e-01 2.05738917e-01 3.57686222e-01
      8.43788609e-02 1.14260808e-01 3.82385820e-01 2.92944580e-01
      3.35774392e-01 3.82385820e-01 1.05265528e-01 1.52397573e-01
      3.82385820e-01 1.84789941e-01 3.52299243e-01 3.82385820e-01
      3.49168271e-01 3.49168271e-01 2.63229340e-01 1.64313257e-01
      3.49168271e-01 1.15163565e-01 2.21907660e-01 3.49168271e-01
      3.49168271e-01 1.36131808e-01 3.49168271e-01 2.96098799e-01
      8.14788640e-02 4.26944345e-01 2.23906532e-01 2.01247767e-01
      4.26944345e-01 1.38946414e-01 4.55796234e-02 4.26944345e-01
      1.62619844e-01 8.38501379e-02 4.26944345e-01 3.38343024e-01
      2.71597654e-01 3.34382504e-01 1.36954933e-01 3.34382504e-01
      3.34382504e-01 1.82378322e-01 2.58195072e-01 3.34382504e-01
      3.34382504e-01 3.34382504e-01 2.62539625e-01 2.53798515e-01
      3.74770015e-01 1.44893080e-01 1.81218341e-01 3.74770015e-01
      1.28987700e-01 3.74770015e-01 3.74770015e-01 1.56712338e-01
      1.66344449e-01 3.74770015e-01 1.75611377e-01 3.74770015e-01
      8.91539007e-02 1.01905614e-01 3.77359867e-01 1.39680073e-01
      3.60959500e-01 3.77359867e-01 1.10212177e-01 1.17597595e-01
      3.77359867e-01 3.51852179e-01 3.29722166e-01 3.77359867e-01
      1.21475860e-01 3.58504683e-01 3.58504683e-01 1.70004919e-01
      3.58504683e-01 1.22692250e-01 3.58504683e-01 3.58504683e-01
      2.66932994e-01 2.88584888e-01 3.58504683e-01 1.09629653e-01
      1.68366984e-01 3.80153686e-01 4.27973680e-02 2.96913832e-01
      3.80153686e-01 2.05860913e-01 3.26966584e-01 3.80153686e-01
      3.23643312e-02 3.80153686e-01 3.80153686e-01 7.03406855e-02
      3.83021444e-01 3.02248806e-01 2.19243348e-01 3.83021444e-01
      1.66285604e-01 1.22296758e-01 3.83021444e-01 3.83021444e-01
      7.90223107e-02 3.83021444e-01 2.61938184e-01 7.58998543e-02
      3.70882660e-01 1.30429640e-01 1.18968524e-01 3.70882660e-01
      1.79411814e-01 3.70882660e-01 3.70882660e-01 1.59612924e-01
      1.52141958e-01 3.70882660e-01 2.42885634e-01 3.70882660e-01
      7.73439333e-02 1.51552126e-01 3.96978825e-01 2.34757170e-01
      2.56949544e-01 3.96978825e-01 8.78431648e-02 2.05611274e-01
      3.96978825e-01 8.94236416e-02 3.96978825e-01 3.96978825e-01
      3.04371685e-01 3.30699563e-01 3.30699563e-01 1.47251159e-01
      3.30699563e-01 3.30699563e-01 7.15271905e-02 3.30699563e-01
      3.30699563e-01 4.85482253e-02 3.30699563e-01 3.30699563e-01
      1.33757159e-01 3.95106077e-01 9.45685506e-02 1.56022474e-01
      3.95106077e-01 3.06649923e-01 7.88241923e-02 3.95106077e-01
      1.37078941e-01 2.12822050e-01 3.95106077e-01 3.95106077e-01
      2.99314201e-01 3.52422506e-01 2.09331557e-01 3.52422506e-01
      2.02209458e-01 1.02606989e-01 3.52422506e-01 3.52422506e-01
      3.52422506e-01 3.52422506e-01 2.01779202e-01 1.60401389e-01
      3.81832212e-01 1.22497194e-01 1.09951675e-01 3.81832212e-01
      1.63256377e-01 3.81832212e-01 3.81832212e-01 1.58400640e-01
      1.43470541e-01 3.81832212e-01 1.48284569e-01 3.81832212e-01
      8.48548487e-02 1.14383526e-01 4.01712328e-01 1.70079783e-01
      3.39271605e-01 4.01712328e-01 1.21149600e-01 1.21387482e-01
      4.01712328e-01 3.00831676e-01 2.57424861e-01 4.01712328e-01
      2.29153171e-01 3.52764904e-01 3.15991133e-01 1.30768046e-01
      3.52764904e-01 1.09627537e-01 3.52764904e-01 3.52764904e-01
      3.52764904e-01 2.09528118e-01 3.52764904e-01 1.56316802e-01
      1.20221935e-01 4.09546435e-01 4.73980792e-02 4.15392697e-01
      4.15392697e-01 1.18992887e-01 6.49170429e-02 4.15392697e-01
      9.67943370e-02 2.64018863e-01 4.15392697e-01 1.54172853e-01
      3.63614202e-01 3.63614202e-01 1.02268249e-01 3.63614202e-01
      2.22954765e-01 9.11406577e-02 3.63614202e-01 3.63614202e-01
      1.47974119e-01 3.63614202e-01 3.04794848e-01 1.40729800e-01
      3.64954561e-01 1.77318111e-01 1.62784562e-01 3.64954561e-01
      1.51898384e-01 3.64954561e-01 3.64954561e-01 2.08033457e-01
      1.82266101e-01 3.64954561e-01 1.99224442e-01 3.64954561e-01
      1.08464718e-01 1.21666096e-01 4.00058836e-01 1.36114016e-01
      2.75833130e-01 4.00058836e-01 1.20597415e-01 1.31757870e-01
      4.00058836e-01 2.06605747e-01 4.00058836e-01 4.00058836e-01
      1.44453973e-01 3.69602144e-01 3.69602144e-01 5.87495863e-02
      3.69602144e-01 2.52488106e-01 2.22052008e-01 3.69602144e-01
      3.69602144e-01 1.26790717e-01 3.69602144e-01 1.52385578e-01
      1.51265478e-02 3.59300584e-01 2.21277446e-01 5.24787083e-02
      3.59300584e-01 3.59300584e-01 1.29420832e-01 3.59300584e-01
      2.58725375e-01 3.59300584e-01 3.59300584e-01 2.93587744e-01
      2.52012908e-01 3.61045092e-01 3.20411146e-01 3.61045092e-01
      1.92409486e-01 1.79693967e-01 3.61045092e-01 3.61045092e-01
      2.16551185e-01 3.61045092e-01 2.04715714e-01 1.42608121e-01
      3.84669393e-01 1.32272810e-01 1.22881763e-01 3.84669393e-01
      1.25049993e-01 3.84669393e-01 3.84669393e-01 1.47644758e-01
      1.50773898e-01 3.84669393e-01 1.24773815e-01 3.84669393e-01
      9.84195173e-02 1.00500807e-01 4.17083979e-01 2.81601250e-01
      2.25884408e-01 4.17083979e-01 9.92759094e-02 1.40825450e-01
      4.17083979e-01 1.73895910e-01 2.99933612e-01 4.17083979e-01
      3.14541906e-01 3.14541906e-01 2.64721394e-01 3.14541906e-01
      3.14541906e-01 4.64247167e-02 2.88516283e-01 3.14541906e-01
      3.14541906e-01 3.14541906e-01 3.14541906e-01 2.23360524e-01
      1.35366261e-01 4.13288742e-01 7.40574002e-02 3.51626188e-01
      4.13288742e-01 5.28651215e-02 2.10398257e-01 4.13288742e-01
      7.19614848e-02 1.13726169e-01 4.13288742e-01 3.16255122e-01
      3.54659408e-01 3.54659408e-01 4.67909425e-02 3.54659408e-01
      2.23375231e-01 7.95603469e-02 3.09467673e-01 3.54659408e-01
      3.24276000e-01 3.54659408e-01 2.78448224e-01 1.75116733e-01
      3.85305971e-01 1.03980489e-01 1.51235402e-01 3.85305971e-01
      1.06285885e-01 3.85305971e-01 3.85305971e-01 1.29429176e-01
      1.48725450e-01 3.85305971e-01 1.46746084e-01 3.85305971e-01
      8.88147280e-02 1.19924508e-01 3.88845205e-01 4.62826043e-02
      3.80719095e-01 3.88845205e-01 1.09135702e-01 1.46446109e-01
      3.88845205e-01 1.93381310e-01 3.88845205e-01 3.88845205e-01
      4.08048406e-02 3.56910855e-01 3.56910855e-01 7.47198090e-02
      3.56910855e-01 3.14582795e-01 2.59827703e-01 3.56910855e-01
      3.25676471e-01 1.60625800e-01 3.56910855e-01 2.32208043e-01
      2.57515490e-01 3.77132803e-01 5.65964803e-02 2.08662063e-01
      3.77132803e-01 3.77132803e-01 1.47656828e-01 3.77132803e-01
      2.30632387e-02 3.77132803e-01 3.77132803e-01 8.64036381e-02
      3.48542631e-01 3.48542631e-01 3.16355973e-01 3.48542631e-01
      1.93020955e-01 1.61096662e-01 3.48542631e-01 3.48542631e-01
      8.53353366e-02 3.48542631e-01 2.83607781e-01 1.28918722e-01
      3.75677705e-01 1.14333503e-01 1.18630238e-01 3.75677705e-01
      1.44976437e-01 3.75677705e-01 3.75677705e-01 1.50356054e-01
      2.04072133e-01 3.75677705e-01 1.92427397e-01 3.75677705e-01
      1.02720894e-01 1.38412282e-01 4.06628579e-01 2.36965120e-01
      2.62749523e-01 4.06628579e-01 1.33960083e-01 1.64205834e-01
      4.06628579e-01 1.42974734e-01 3.38084251e-01 4.06628579e-01
      3.38445872e-01 3.38445872e-01 3.38445872e-01 2.03847125e-01
      3.38445872e-01 1.54402867e-01 1.51987672e-01 3.38445872e-01
      3.38445872e-01 5.98024353e-02 3.38445872e-01 3.20512801e-01
      6.22784793e-02 4.16615009e-01 6.65745512e-02 2.14654759e-01
      4.16615009e-01 1.60001934e-01 4.59863171e-02 4.16615009e-01
      1.89212367e-01 1.00468084e-01 4.16615009e-01 4.16615009e-01
      3.19098443e-01 3.39225918e-01 1.34384096e-01 3.39225918e-01
      2.75722206e-01 1.31844401e-01 3.10560703e-01 3.39225918e-01
      3.39225918e-01 3.39225918e-01 2.35229775e-01 2.37001792e-01
      3.81588250e-01 1.44073501e-01 1.35240957e-01 3.81588250e-01
      1.53321341e-01 3.81588250e-01 3.81588250e-01 1.52567163e-01
      1.27275348e-01 3.81588250e-01 1.43177211e-01 3.81588250e-01
      9.27710533e-02 1.23465411e-01 4.09458399e-01 1.22837976e-01
      3.07808310e-01 4.09458399e-01 1.19790912e-01 1.49039850e-01
      4.09458399e-01 2.78996468e-01 2.77844936e-01 4.09458399e-01
      1.40172049e-01 3.49881470e-01 3.49881470e-01 8.68260115e-02
      3.49881470e-01 1.30912125e-01 3.49881470e-01 3.49881470e-01
      3.49881470e-01 2.99600989e-01 3.49881470e-01 7.41577968e-02
      1.09519310e-01 3.77129585e-01 7.57289529e-02 3.33956152e-01
      3.77129585e-01 2.11831853e-01 2.79734969e-01 3.77129585e-01
      1.27279818e-01 3.77129585e-01 3.77129585e-01 1.28522575e-01
      3.65150392e-01 3.39469194e-01 2.06569344e-01 3.65150392e-01
      1.85706154e-01 1.27067804e-01 3.65150392e-01 3.65150392e-01
      9.23807397e-02 3.65150392e-01 3.20994139e-01 9.77909118e-02
      3.80953640e-01 1.24259934e-01 1.36918649e-01 3.80953640e-01
      1.19553819e-01 3.80953640e-01 3.80953640e-01 1.73327327e-01
      1.64100930e-01 3.80953640e-01 1.41379163e-01 3.80953640e-01
      8.89738277e-02 1.31325722e-01 4.26748514e-01 1.53249040e-01
      2.51843423e-01 4.26748514e-01 1.16987757e-01 1.01827279e-01
      4.26748514e-01 1.16322078e-01 3.42959166e-01 4.26748514e-01
      2.50238180e-01 3.54444563e-01 3.59001458e-01 1.48771539e-01
      3.59001458e-01 2.23164663e-01 1.18309908e-01 3.59001458e-01
      3.59001458e-01 1.29860207e-01 3.59001458e-01 2.46893987e-01
      3.10896933e-01 2.70153791e-01 3.02323133e-01 1.56938478e-01
      3.10896933e-01 3.10896933e-01 3.10896933e-01 1.86081424e-01
      3.10896933e-01 3.10896933e-01 3.10896933e-01 3.10896933e-01
      2.53317982e-01 3.38009506e-01 2.95078486e-01 3.38009506e-01
      2.24079847e-01 1.90942720e-01 3.38009506e-01 3.35643172e-01
      3.25515091e-01 3.38009506e-01 2.07397133e-01 2.00197592e-01
      3.82656217e-01 1.44860283e-01 1.20895222e-01 3.82656217e-01
      1.23953819e-01 3.82656217e-01 3.82656217e-01 1.73221752e-01
      1.38822809e-01 3.82656217e-01 1.31833538e-01 3.82656217e-01
      1.14205055e-01 9.10807252e-02 4.18876857e-01 2.00217798e-01
      2.62584805e-01 4.18876857e-01 1.33684978e-01 1.32216275e-01
      4.18876857e-01 2.08438084e-01 2.91219264e-01 4.18876857e-01
      2.77012795e-01 3.11616868e-01 3.06239784e-01 2.56096542e-01
      3.11616868e-01 1.77113235e-01 3.04722220e-01 3.11616868e-01
      3.11616868e-01 2.32221380e-01 3.11616868e-01 3.11616868e-01
      3.05690795e-01 3.06161880e-01 2.10398242e-01 3.29912245e-01
      3.29912245e-01 2.35263601e-01 5.79591282e-02 3.29912245e-01
      3.29912245e-01 2.31286749e-01 3.29912245e-01 3.29912245e-01
      3.36093992e-01 3.36093992e-01 1.41479358e-01 3.36093992e-01
      2.24188298e-01 1.95620641e-01 2.89459080e-01 3.36093992e-01
      3.36093992e-01 3.36093992e-01 1.16606437e-01 3.36093992e-01
      3.62679452e-01 1.27016291e-01 2.20100373e-01 3.62679452e-01
      9.08237547e-02 3.62679452e-01 3.62679452e-01 3.80726680e-02
      3.62679452e-01 3.62679452e-01 3.66867185e-02 3.62679452e-01
      1.32218108e-01 6.79490566e-02 3.82344931e-01 1.66949064e-01
      2.27490962e-01 3.82344931e-01 3.82344931e-01 2.73976028e-02
      3.82344931e-01 3.82344931e-01 1.28767416e-01 3.82344931e-01
      1.89481452e-01 3.20546836e-01 3.20546836e-01 1.13728255e-01
      3.20546836e-01 3.20546836e-01 3.20546836e-01 3.14860731e-01
      3.20546836e-01 3.20546836e-01 3.20546836e-01 1.63769215e-01
      5.86218685e-02 1.86675861e-01 4.33755219e-01 1.65278435e-01
      1.38526320e-01 4.33755219e-01 1.37837023e-01 7.42267519e-02
      4.33755219e-01 3.64336401e-01 3.24404128e-02 4.33755219e-01
      2.56178588e-01 6.10768646e-02 3.63852948e-01 3.63852948e-01
      1.18440930e-02 3.63852948e-01 3.63852948e-01 7.08499085e-03
      3.63852948e-01 3.63852948e-01 9.67603363e-03 3.63852948e-01
      3.52541536e-01 3.87657504e-03 3.52541536e-01 3.52541536e-01
      6.00337330e-03 3.52541536e-01 3.52541536e-01 3.03545296e-02
      3.52541536e-01 3.52541536e-01 3.49407755e-02 3.52541536e-01
      3.51632923e-01 4.05957410e-03 3.51632923e-01 3.51632923e-01
      2.12396085e-02 3.51632923e-01 3.51632923e-01 1.13863489e-02
      3.51632923e-01 3.51632923e-01 8.19996968e-02 3.51632923e-01
      4.00799811e-01 5.70159145e-02 3.93093407e-01 4.00799811e-01
      1.25766546e-01 1.33587956e-01 4.00799811e-01 9.11224484e-02
      3.56285781e-01 4.00799811e-01 4.87283990e-02 1.56142667e-01</_>
    <_>
      3.52547109e-01 4.19732668e-02 3.52547109e-01 3.52547109e-01
      2.00053770e-02 3.52547109e-01 3.52547109e-01 7.01996760e-05
      3.52547109e-01 3.52547109e-01 0. 3.52547109e-01 3.52795482e-01
      1.41047603e-02 3.52795482e-01 3.52795482e-01 1.01563837e-02
      3.52795482e-01 3.52795482e-01 1.87505886e-03 3.52795482e-01
      3.52795482e-01 2.12677121e-02 3.52795482e-01 3.52739453e-01
      9.99369565e-03 3.52739453e-01 3.52739453e-01 2.14162488e-02
      3.52739453e-01 3.52739453e-01 1.55481882e-02 3.52739453e-01
      3.52739453e-01 1.65639389e-02 3.52739453e-01 3.52557182e-01
      2.37516519e-02 3.52557182e-01 3.52557182e-01 3.25764157e-02
      3.52557182e-01 3.52557182e-01 2.02642456e-02 3.52557182e-01
      3.52557182e-01 8.30926001e-03 3.52557182e-01 3.52528751e-01
      3.36269587e-02 3.52528751e-01 3.52528751e-01 3.35664228e-02
      3.52528751e-01 3.52528751e-01 2.05268734e-03 3.52528751e-01
      3.52528751e-01 1.99429970e-03 3.52528751e-01 3.58718663e-01
      1.21346232e-03 3.58718663e-01 3.58718663e-01 3.70694324e-03
      3.58718663e-01 3.58718663e-01 4.52458598e-02 3.58718663e-01
      2.97369421e-01 7.19138011e-02 3.58718663e-01 3.74106467e-01
      1.20673431e-02 3.74106467e-01 3.74106467e-01 1.21487066e-01
      3.74106467e-01 2.62551934e-01 3.23639289e-02 3.74106467e-01
      2.45230854e-01 1.07260108e-01 3.74106467e-01 3.15692186e-01
      9.70295370e-02 3.66026551e-01 3.66026551e-01 1.02017000e-01
      3.66026551e-01 1.81756839e-01 1.48496315e-01 3.66026551e-01
      2.98277646e-01 2.50850588e-01 3.66026551e-01 3.12294036e-01
      1.47993863e-01 3.12294036e-01 3.12294036e-01 1.43411249e-01
      3.12294036e-01 2.86818624e-01 3.12294036e-01 3.12294036e-01
      3.12294036e-01 3.12294036e-01 3.03191394e-01 3.45641822e-01
      3.10247056e-02 3.45641822e-01 3.45641822e-01 1.11082476e-03
      3.45641822e-01 3.45641822e-01 1.98433861e-01 3.45641822e-01
      3.45641822e-01 2.14636568e-02 3.45641822e-01 3.35063756e-01
      1.44816369e-01 3.35063756e-01 1.57181412e-01 1.98473737e-01
      3.35063756e-01 3.35063756e-01 2.87947387e-01 3.35063756e-01
      2.06869289e-01 3.35063756e-01 3.35063756e-01 1.70839593e-01
      1.22899644e-01 3.36747378e-01 3.36747378e-01 7.23962262e-02
      3.36747378e-01 1.99783027e-01 3.36747378e-01 3.36747378e-01
      3.36747378e-01 3.36747378e-01 3.36747378e-01 2.21461296e-01
      6.22112975e-02 3.62648696e-01 2.58041412e-01 1.44926980e-01
      3.62648696e-01 3.62648696e-01 2.33548164e-01 3.62648696e-01
      2.68662810e-01 2.67539591e-01 3.62648696e-01 3.05304617e-01
      2.22936705e-01 3.05304617e-01 3.05304617e-01 3.05304617e-01
      1.59312323e-01 3.05304617e-01 2.88044989e-01 3.05304617e-01
      3.05304617e-01 3.05304617e-01 3.05304617e-01 3.01128209e-01
      3.01128209e-01 3.01128209e-01 3.01128209e-01 1.18625216e-01
      3.01128209e-01 3.01128209e-01 3.01128209e-01 3.01128209e-01
      2.75929719e-01 3.01128209e-01 3.01128209e-01 3.18685740e-01
      3.04375589e-01 3.18685740e-01 1.68173105e-01 3.18685740e-01
      3.18685740e-01 2.63789147e-01 3.18685740e-01 2.65447944e-01
      1.57853127e-01 3.18685740e-01 3.18685740e-01 6.18874505e-02
      3.54844987e-01 2.65210807e-01 1.93414956e-01 3.54844987e-01
      3.50546777e-01 5.88994995e-02 3.54844987e-01 3.54844987e-01
      5.51036224e-02 3.54844987e-01 3.54844987e-01 1.92803577e-01
      3.04605037e-01 3.88408780e-01 1.23726659e-01 2.51845688e-01
      3.88408780e-01 9.15432200e-02 2.91630268e-01 3.88408780e-01
      1.40366957e-01 2.66178459e-01 3.88408780e-01 7.71392509e-02
      3.07018012e-01 3.40464234e-01 1.34348825e-01 3.40464234e-01
      3.40464234e-01 1.09542362e-01 3.40464234e-01 3.40464234e-01
      2.34365806e-01 3.40464234e-01 3.40464234e-01 1.51661411e-01
      3.11770350e-01 3.11770350e-01 1.72897041e-01 2.93916434e-01
      3.11770350e-01 3.11770350e-01 3.11770350e-01 3.11770350e-01
      2.82838285e-01 3.11770350e-01 3.11770350e-01 1.64478078e-01
      3.32396269e-01 2.49392331e-01 1.29831001e-01 3.32396269e-01
      3.32396269e-01 1.89084038e-01 3.32396269e-01 3.19212109e-01
      3.00000548e-01 3.32396269e-01 3.32396269e-01 1.14857376e-01
      3.24557066e-01 3.24557066e-01 2.48167396e-01 2.19662160e-01
      3.24557066e-01 3.24557066e-01 3.24557066e-01 1.76147848e-01
      3.24557066e-01 3.24557066e-01 3.24557066e-01 1.57884791e-01
      1.21653296e-01 3.81599993e-01 2.09794968e-01 1.37525707e-01
      3.81599993e-01 3.81599993e-01 1.80668965e-01 3.81599993e-01
      2.91355520e-01 2.18886584e-01 3.81599993e-01 3.07013363e-01
      3.07013363e-01 3.07013363e-01 3.07013363e-01 3.07013363e-01
      1.37730151e-01 3.07013363e-01 3.07013363e-01 3.07013363e-01
      3.07013363e-01 3.07013363e-01 1.88123927e-01 3.42822820e-01
      3.45520079e-01 1.71764016e-01 2.10397586e-01 3.45520079e-01
      1.74886644e-01 3.45520079e-01 3.45520079e-01 2.59383351e-01
      2.31022969e-01 3.45520079e-01 2.38941520e-01 1.29120097e-01
      3.64142865e-01 1.85007796e-01 3.16474110e-01 3.64142865e-01
      1.67490065e-01 2.14817166e-01 3.64142865e-01 2.05077261e-01
      2.57002145e-01 3.64142865e-01 3.64142865e-01 2.63005823e-01
      3.46308589e-01 7.60984123e-02 3.46308589e-01 3.46308589e-01
      2.32768133e-01 1.29647061e-01 3.46308589e-01 3.46308589e-01
      1.05261661e-01 3.46308589e-01 3.46308589e-01 2.36959368e-01
      2.91403800e-01 3.76629651e-01 1.24642670e-01 2.77607918e-01
      3.76629651e-01 9.05648172e-02 3.16447586e-01 3.76629651e-01
      1.24280557e-01 2.67176330e-01 3.76629651e-01 8.24979246e-02
      3.45649749e-01 3.45649749e-01 1.40828118e-01 3.45649749e-01
      3.45649749e-01 6.73406944e-02 3.45649749e-01 3.45649749e-01
      9.78944451e-02 3.45649749e-01 3.45649749e-01 1.45221680e-01
      3.42179805e-01 3.25783968e-01 1.61942720e-01 3.42179805e-01
      2.33765945e-01 1.88042864e-01 3.42179805e-01 3.42179805e-01
      2.24949703e-01 3.42179805e-01 3.42179805e-01 2.41257012e-01
      3.30395430e-01 1.37165129e-01 3.30395430e-01 3.30395430e-01
      3.30395430e-01 2.50570357e-01 3.30395430e-01 2.10879609e-01
      3.30395430e-01 3.30395430e-01 2.19763592e-01 1.81048378e-01
      2.80243576e-01 3.32979321e-01 2.22615853e-01 2.82192618e-01
      3.32979321e-01 3.32979321e-01 3.32979321e-01 1.48954123e-01
      3.32979321e-01 2.62162030e-01 3.32979321e-01 1.23980872e-01
      1.72231674e-01 3.76870245e-01 2.03304395e-01 1.42670870e-01
      3.76870245e-01 3.76870245e-01 1.65495008e-01 3.76870245e-01
      3.29800248e-01 2.07844898e-01 3.76870245e-01 2.78669327e-01
      3.12021881e-01 3.04562241e-01 3.12021881e-01 3.12021881e-01
      1.80054739e-01 3.12021881e-01 2.83099890e-01 3.12021881e-01
      3.12021881e-01 3.12021881e-01 1.79996133e-01 2.87989944e-01
      3.22401464e-01 2.98021555e-01 2.13787436e-01 3.22401464e-01
      2.95042008e-01 3.22401464e-01 3.22401464e-01 2.52092570e-01
      2.21940145e-01 3.22401464e-01 2.44432077e-01 2.14925885e-01
      3.35596293e-01 1.67333007e-01 3.35596293e-01 3.35596293e-01
      2.32396051e-01 2.84396291e-01 3.35596293e-01 2.27956638e-01
      2.44643912e-01 3.35596293e-01 3.35596293e-01 3.37296247e-01
      3.37296247e-01 1.98845610e-01 3.37296247e-01 2.23340258e-01
      3.37296247e-01 1.52646080e-01 3.37296247e-01 3.37296247e-01
      1.17590547e-01 2.71477222e-01 3.37296247e-01 2.72314578e-01
      1.54100597e-01 4.17973667e-01 1.47471696e-01 2.68591940e-01
      4.17973667e-01 8.79082456e-02 1.71714067e-01 4.17973667e-01
      9.04074386e-02 2.44617820e-01 4.17973667e-01 1.58215120e-01
      3.24999928e-01 3.37991536e-01 2.36503795e-01 3.37991536e-01
      3.37991536e-01 4.34725620e-02 3.37991536e-01 3.37991536e-01
      9.20547992e-02 3.37991536e-01 3.37991536e-01 3.16354483e-01
      3.70814770e-01 2.37411067e-01 2.35856056e-01 3.70814770e-01
      1.69372573e-01 1.96836427e-01 3.70814770e-01 2.84375399e-01
      2.63623834e-01 3.70814770e-01 1.28101781e-01 1.67738870e-01
      3.38227481e-01 2.75567979e-01 1.54286191e-01 3.38227481e-01
      3.38227481e-01 2.07540944e-01 3.38227481e-01 2.20723838e-01
      3.00936908e-01 3.38227481e-01 3.38227481e-01 9.33963433e-02
      3.26909274e-01 3.26909274e-01 1.30233020e-01 2.01308712e-01
      3.26909274e-01 3.26909274e-01 3.26909274e-01 2.74895370e-01
      3.26909274e-01 3.26909274e-01 3.26909274e-01 9.37663242e-02
      1.31778315e-01 3.84589523e-01 1.65048659e-01 1.50139973e-01
      3.84589523e-01 3.37894052e-01 1.46480158e-01 3.84589523e-01
      3.84589523e-01 2.12232918e-01 3.84589523e-01 2.78943390e-01
      3.24030846e-01 2.53223836e-01 3.24030846e-01 3.24030846e-01
      1.37493089e-01 3.24030846e-01 2.99618781e-01 3.24030846e-01
      3.24030846e-01 3.24030846e-01 1.05748460e-01 1.99127927e-01
      3.67564857e-01 1.18116722e-01 1.70005888e-01 3.67564857e-01
      1.38900846e-01 3.67564857e-01 3.67564857e-01 1.61876976e-01
      3.35290968e-01 3.67564857e-01 2.83522457e-01 2.34747052e-01
      3.49883884e-01 1.25587940e-01 3.29971731e-01 3.49883884e-01
      1.54515609e-01 2.73724288e-01 3.49883884e-01 1.71683356e-01
      3.49883884e-01 3.49883884e-01 2.76360959e-01 2.99128830e-01
      3.32315087e-01 1.03847861e-01 3.32315087e-01 3.32315087e-01
      3.00168872e-01 1.79404393e-01 3.32315087e-01 3.16660047e-01
      1.06096506e-01 3.32315087e-01 3.32315087e-01 2.42464870e-01
      1.95694849e-01 4.00112718e-01 2.16802150e-01 2.79432476e-01
      4.00112718e-01 6.61873072e-02 2.42137194e-01 4.00112718e-01
      7.69102201e-02 2.54056007e-01 4.00112718e-01 2.47150436e-01
      2.96425641e-01 3.38363975e-01 2.11244956e-01 3.38363975e-01
      3.26762438e-01 3.64901349e-02 3.38363975e-01 3.38363975e-01
      8.94262642e-02 3.38363975e-01 3.38363975e-01 1.78009778e-01
      3.16355824e-01 2.76456147e-01 2.91682780e-01 3.16355824e-01
      3.16355824e-01 2.55647987e-01 3.16355824e-01 3.16355824e-01
      3.16355824e-01 1.94220394e-01 3.16355824e-01 1.58837989e-01
      3.27773482e-01 2.21231177e-01 1.69381976e-01 3.27773482e-01
      3.27773482e-01 2.96919286e-01 3.27773482e-01 3.12887162e-01
      2.51376003e-01 3.27773482e-01 3.27773482e-01 7.78626725e-02
      3.32653970e-01 3.32653970e-01 6.40600026e-02 3.32653970e-01
      3.32653970e-01 2.51762688e-01 3.32653970e-01 1.94566622e-01
      3.32653970e-01 3.32653970e-01 3.32653970e-01 7.13414252e-02
      1.54027879e-01 3.76770467e-01 1.37462348e-01 1.75909415e-01
      3.76770467e-01 3.48885268e-01 1.60022154e-01 3.76770467e-01
      3.76770467e-01 2.45913982e-01 3.76770467e-01 1.76247075e-01
      3.41664493e-01 2.78953761e-01 2.13731706e-01 3.41664493e-01
      1.99061930e-01 3.41664493e-01 3.41664493e-01 3.07833314e-01
      3.41664493e-01 3.41664493e-01 8.50406960e-02 2.78685242e-01
      3.16069603e-01 2.70924389e-01 3.16069603e-01 2.54799306e-01
      3.16069603e-01 2.79905081e-01 3.16069603e-01 2.72108048e-01
      1.70481935e-01 3.16069603e-01 3.16069603e-01 2.58917123e-01
      3.65106791e-01 2.08975747e-01 2.77711987e-01 3.65106791e-01
      2.00125113e-01 2.95507997e-01 3.65106791e-01 2.17355445e-01
      2.24967837e-01 3.65106791e-01 2.23782599e-01 2.94898063e-01
      3.41321647e-01 6.60124123e-02 3.41321647e-01 3.41321647e-01
      3.20307165e-01 1.63254276e-01 3.41321647e-01 2.03577399e-01
      1.88605249e-01 3.41321647e-01 3.41321647e-01 3.03390235e-01
      1.64590597e-01 3.85930926e-01 2.62341559e-01 2.65233785e-01
      3.85930926e-01 1.06372476e-01 2.16331437e-01 3.85930926e-01
      7.64448494e-02 2.79477626e-01 3.85930926e-01 3.28802049e-01
      3.24252814e-01 3.28802049e-01 2.90221423e-01 2.94135034e-01
      2.51121789e-01 3.96708176e-02 3.28802049e-01 3.28802049e-01
      8.67763758e-02 3.28802049e-01 3.28802049e-01 2.19254822e-01
      2.60636568e-01 2.99909174e-01 2.99909174e-01 2.67374963e-01
      2.99909174e-01 2.99909174e-01 2.99909174e-01 2.99909174e-01
      2.99909174e-01 2.99909174e-01 2.99909174e-01 2.38394037e-01
      3.51251990e-01 1.84494302e-01 1.97904781e-01 3.51251990e-01
      2.86432117e-01 1.65676087e-01 3.51251990e-01 1.29207551e-01
      3.51251990e-01 3.51251990e-01 3.51251990e-01 6.79156184e-02
      3.16442698e-01 3.16442698e-01 8.54545832e-02 3.16442698e-01
      3.16442698e-01 3.16442698e-01 3.03483069e-01 3.16442698e-01
      3.16442698e-01 3.02874923e-01 3.16442698e-01 6.63609952e-02
      1.56210467e-01 3.92067403e-01 1.08943425e-01 1.90800920e-01
      3.92067403e-01 2.47913823e-01 1.77381158e-01 3.92067403e-01
      3.92067403e-01 2.39780024e-01 3.92067403e-01 1.11097082e-01
      3.43990147e-01 3.22666347e-01 1.37983039e-01 3.43990147e-01
      2.24323884e-01 3.43990147e-01 3.43990147e-01 2.94335097e-01
      3.43990147e-01 3.43990147e-01 1.18902974e-01 2.56153762e-01
      3.12673897e-01 2.70865142e-01 3.12673897e-01 3.12673897e-01
      2.71644384e-01 3.12673897e-01 3.12673897e-01 2.40337551e-01
      3.12673897e-01 3.12673897e-01 2.04903871e-01 1.17753498e-01
      3.28341782e-01 1.10495567e-01 3.45585525e-01 3.45585525e-01
      2.48849779e-01 2.04369500e-01 3.42728972e-01 2.10619584e-01
      3.45585525e-01 3.45585525e-01 3.45585525e-01 3.35216731e-01
      2.29308143e-01 1.43286824e-01 3.35216731e-01 1.36064470e-01
      3.29900533e-01 3.35216731e-01 3.35216731e-01 3.35216731e-01
      3.35216731e-01 9.79677662e-02 3.35216731e-01 2.18594521e-01
      1.13805637e-01 3.23106736e-01 3.23106736e-01 2.93336987e-01
      3.23106736e-01 3.23106736e-01 1.21680327e-01 3.23106736e-01
      3.23106736e-01 3.23106736e-01 3.23106736e-01 3.37998003e-01
      3.37998003e-01 2.78140545e-01 3.37998003e-01 3.37998003e-01
      1.26449451e-01 3.37998003e-01 3.37998003e-01 1.83957025e-01
      2.98592418e-01 2.89214879e-01 1.05699256e-01 3.32454652e-01
      3.32454652e-01 1.82624802e-01 3.32454652e-01 3.32454652e-01
      1.56788796e-01 3.32454652e-01 2.46697128e-01 1.89411029e-01
      3.32454652e-01 3.32454652e-01 2.61390209e-01 2.53622890e-01
      2.20283478e-01 3.35147083e-01 3.35147083e-01 3.35147083e-01
      3.35147083e-01 2.25456044e-01 1.60004109e-01 3.24541956e-01
      3.35147083e-01 1.67634696e-01 3.35147083e-01 3.51825893e-01
      1.55429512e-01 3.51825893e-01 3.51825893e-01 4.26950194e-02
      3.51825893e-01 3.16065669e-01 6.76053613e-02 3.48415136e-01
      3.51825893e-01 4.42020707e-02 3.51825893e-01 3.60512912e-01
      5.94604537e-02 3.60512912e-01 3.60512912e-01 2.29217485e-01
      3.60512912e-01 3.60512912e-01 6.45065010e-02 2.62713641e-01
      3.60512912e-01 1.11987926e-01 2.73466289e-01 3.08689624e-01
      3.08689624e-01 3.08689624e-01 3.08689624e-01 3.08689624e-01
      2.29187459e-01 3.08689624e-01 1.70955315e-01 3.08689624e-01
      3.08689624e-01 2.81478882e-01 2.71326810e-01 3.01998019e-01
      2.75289029e-01 2.17062891e-01 3.01998019e-01 2.30774447e-01
      3.01998019e-01 3.01998019e-01 3.01998019e-01 3.01998019e-01
      3.01998019e-01 3.01998019e-01 3.01998019e-01</_>
    <_>
      3.31562936e-01 1.19306915e-01 3.31562936e-01 2.85361230e-01
      3.31562936e-01 3.31562936e-01 3.16103578e-01 2.35906437e-01
      1.52148634e-01 3.31562936e-01 3.31562936e-01 2.50391096e-01
      1.52568579e-01 3.24286193e-01 3.24286193e-01 3.24286193e-01
      3.09190303e-01 2.57580370e-01 3.24286193e-01 3.24286193e-01
      2.02980593e-01 3.24286193e-01 3.24286193e-01 1.84944093e-01
      3.75043213e-01 1.80238992e-01 1.08616069e-01 3.75043213e-01
      1.80083394e-01 3.20773423e-01 3.75043213e-01 2.32655481e-01
      1.56675786e-01 3.75043213e-01 1.86228216e-01 3.75043213e-01
      2.54462391e-01 1.73220605e-01 3.35568875e-01 1.08589537e-01
      3.35383147e-01 3.35568875e-01 3.16125095e-01 2.21994832e-01
      3.35568875e-01 2.63330162e-01 3.29593390e-01 3.35568875e-01
      2.38900989e-01 3.09899807e-01 3.09899807e-01 3.09899807e-01
      3.09899807e-01 3.09899807e-01 2.30706632e-01 2.93829322e-01
      3.09899807e-01 1.78788885e-01 3.09899807e-01 3.09899807e-01
      1.84490621e-01 3.72933954e-01 8.00261497e-02 4.07716990e-01
      4.07716990e-01 5.11657223e-02 1.33771673e-01 4.07716990e-01
      1.35573193e-01 1.21195145e-01 4.07716990e-01 3.12878013e-01
      3.36422771e-01 3.36422771e-01 2.89291088e-02 3.36422771e-01
      3.36422771e-01 7.84655586e-02 1.86031580e-01 3.36422771e-01
      2.96730429e-01 3.36422771e-01 3.36422771e-01 2.73361266e-01
      3.77994478e-01 2.22942889e-01 7.61408657e-02 3.77994478e-01
      1.25229865e-01 3.56700540e-01 3.77994478e-01 2.37437993e-01
      9.40938592e-02 3.77994478e-01 1.34815753e-01 3.77994478e-01
      2.91142464e-01 1.15943864e-01 3.63326371e-01 1.91202104e-01
      2.08328292e-01 3.63326371e-01 3.63326371e-01 1.20431706e-01
      3.63326371e-01 2.03585997e-01 3.19723159e-01 3.63326371e-01
      1.00690067e-01 3.39992195e-01 3.39992195e-01 3.39034833e-02
      3.39992195e-01 3.21939826e-01 2.66760379e-01 3.39992195e-01
      3.39992195e-01 3.11318904e-01 3.39992195e-01 1.41495794e-01
      4.62064706e-02 3.91076773e-01 1.72511071e-01 8.77360106e-02
      3.91726941e-01 3.91726941e-01 9.67988595e-02 3.91726941e-01
      2.61482418e-01 2.43450418e-01 3.91726941e-01 2.29655519e-01
      2.41806105e-01 3.35436910e-01 3.35436910e-01 3.35436910e-01
      2.55374879e-01 2.70261377e-01 3.23415309e-01 3.35436910e-01
      8.22182372e-02 3.35436910e-01 3.35436910e-01 1.15999810e-01
      4.12337631e-01 1.42754108e-01 9.25185531e-02 4.12337631e-01
      9.89046022e-02 2.97356158e-01 4.12337631e-01 2.57114083e-01
      1.11847341e-01 4.12337631e-01 1.48205206e-01 2.96762705e-01
      3.33509713e-01 1.37315154e-01 3.33509713e-01 1.97215959e-01
      3.08065474e-01 3.33509713e-01 3.33509713e-01 1.58663124e-01
      3.33509713e-01 2.55356669e-01 2.93701023e-01 3.33509713e-01
      3.01287025e-01 2.50620306e-01 3.18226427e-01 3.18226427e-01
      3.18226427e-01 3.09857517e-01 1.96077690e-01 2.89364368e-01
      3.18226427e-01 1.32051393e-01 3.18226427e-01 3.18226427e-01
      1.07390076e-01 4.28195268e-01 1.80065230e-01 1.67024851e-01
      4.45208371e-01 1.47748679e-01 1.41697481e-01 4.45208371e-01
      7.18303919e-02 1.67323619e-01 4.45208371e-01 2.65804946e-01
      1.63460568e-01 3.42754692e-01 4.94051464e-02 3.42754692e-01
      3.42754692e-01 1.27309471e-01 2.03969061e-01 3.42754692e-01
      3.17014903e-01 3.42754692e-01 3.42754692e-01 3.22832704e-01
      4.00224596e-01 2.59624392e-01 1.02753446e-01 4.00224596e-01
      1.58812925e-01 2.63532758e-01 4.00224596e-01 2.07573935e-01
      9.47713852e-02 4.00224596e-01 2.70871222e-01 2.39184245e-01
      3.45101595e-01 1.30990610e-01 3.45101595e-01 1.86006531e-01
      1.99117124e-01 3.45101595e-01 3.13309431e-01 2.95012504e-01
      3.45101595e-01 2.27545857e-01 2.69628376e-01 3.45101595e-01
      1.48791045e-01 3.23000759e-01 3.41760397e-01 1.53468058e-01
      3.41760397e-01 2.06068322e-01 3.10545117e-01 3.08744490e-01
      3.41760397e-01 3.41760397e-01 3.41760397e-01 1.68339521e-01
      2.18841568e-01 3.88694882e-01 5.51878102e-02 2.42697284e-01
      3.88694882e-01 1.56070784e-01 3.20631266e-01 3.88694882e-01
      9.39609259e-02 3.74440879e-01 3.88694882e-01 7.57993460e-02
      3.28486711e-01 3.44193667e-01 2.04359129e-01 3.44193667e-01
      2.27107093e-01 2.31836140e-01 3.44193667e-01 3.44193667e-01
      4.63474952e-02 3.44193667e-01 3.44193667e-01 1.69131204e-01
      3.77272397e-01 1.47940159e-01 1.16045535e-01 3.77272397e-01
      2.12185159e-01 2.26107061e-01 3.77272397e-01 2.49154270e-01
      2.21103892e-01 3.77272397e-01 2.22317517e-01 3.67428124e-01
      2.64229864e-01 1.95379302e-01 3.32253903e-01 2.56202459e-01
      2.61422545e-01 3.32253903e-01 3.32253903e-01 1.78420678e-01
      3.32253903e-01 2.46005267e-01 3.32253903e-01 3.32253903e-01
      2.27167606e-01 3.26130956e-01 3.26130956e-01 2.71386951e-01
      3.26130956e-01 3.26130956e-01 1.28829330e-01 3.26130956e-01
      3.26130956e-01 6.32230118e-02 3.26130956e-01 3.26130956e-01
      1.19475305e-01 4.10619467e-01 1.02389827e-01 1.39019802e-01
      4.10619467e-01 2.69950718e-01 6.08796626e-02 4.10619467e-01
      1.65461168e-01 6.93876371e-02 4.10619467e-01 4.10619467e-01
      1.26769453e-01 3.35656732e-01 2.03076899e-01 3.35656732e-01
      3.35656732e-01 2.45045751e-01 1.81612834e-01 3.35656732e-01
      3.35656732e-01 3.35656732e-01 2.40097687e-01 3.35656732e-01
      4.30769444e-01 1.71113327e-01 1.21445626e-01 4.30769444e-01
      1.51596665e-01 2.57972896e-01 4.30769444e-01 1.19999655e-01
      1.00860663e-01 4.30769444e-01 1.70370728e-01 2.57465303e-01
      2.89003283e-01 1.23477101e-01 3.88217121e-01 1.28927812e-01
      1.88046873e-01 3.88217121e-01 3.88217121e-01 1.54598027e-01
      3.88217121e-01 1.86349407e-01 1.82150215e-01 3.88217121e-01
      1.67962581e-01 3.16963524e-01 3.20105731e-01 1.90500930e-01
      3.20105731e-01 3.08044523e-01 3.14091086e-01 2.91025996e-01
      3.20105731e-01 3.20105731e-01 3.20105731e-01 2.03112334e-01
      1.34352028e-01 3.44207406e-01 8.93804133e-02 3.26283127e-01
      4.07061785e-01 1.76009312e-01 1.97085649e-01 4.07061785e-01
      6.95466027e-02 4.07061785e-01 4.07061785e-01 8.65965635e-02
      3.58845413e-01 3.48389119e-01 1.39502749e-01 3.58845413e-01
      1.99937508e-01 1.38003722e-01 3.58845413e-01 3.58845413e-01
      5.57630248e-02 3.58845413e-01 3.58845413e-01 1.44322813e-01
      4.09912348e-01 1.18965901e-01 6.13447949e-02 4.09912348e-01
      1.51033387e-01 2.28473276e-01 4.09912348e-01 2.36881033e-01
      1.12144247e-01 4.09912348e-01 2.07895517e-01 3.44899625e-01
      3.45771909e-01 1.51593775e-01 3.45771909e-01 2.28443712e-01
      2.51361668e-01 3.45771909e-01 3.45771909e-01 1.49664283e-01
      3.45771909e-01 2.14602530e-01 2.69058347e-01 3.45771909e-01
      1.68175220e-01 3.28238964e-01 3.35758507e-01 2.25244209e-01
      3.35758507e-01 3.35758507e-01 1.26866803e-01 3.35758507e-01
      3.35758507e-01 6.82271868e-02 3.35758507e-01 3.35758507e-01
      6.81468621e-02 3.40724528e-01 2.06660479e-01 9.02667269e-02
      3.73894125e-01 3.09722841e-01 1.41916513e-01 3.45628560e-01
      3.73894125e-01 1.73077568e-01 3.73894125e-01 3.73894125e-01
      8.84011015e-02 3.14535052e-01 2.37439618e-01 3.14535052e-01
      3.14535052e-01 3.14535052e-01 2.09675670e-01 3.14535052e-01
      3.14535052e-01 3.14535052e-01 3.11837286e-01 3.14535052e-01
      4.34783667e-01 1.70005396e-01 1.43721625e-01 4.34783667e-01
      1.66120306e-01 2.49697208e-01 4.34783667e-01 1.41480744e-01
      1.26272216e-01 4.34783667e-01 1.61868930e-01 1.94535926e-01
      3.36563259e-01 9.71367434e-02 3.60177159e-01 1.19908020e-01
      1.61742553e-01 3.60177159e-01 3.60177159e-01 1.80033505e-01
      3.60177159e-01 1.49582729e-01 3.60177159e-01 3.60177159e-01
      1.93855703e-01 2.68190116e-01 3.17852467e-01 3.03567290e-01
      3.17852467e-01 2.26678059e-01 2.86518097e-01 2.35602111e-01
      3.17852467e-01 3.17852467e-01 3.17852467e-01 3.17852467e-01
      1.29890144e-01 3.87909979e-01 1.13604456e-01 3.24622393e-01
      4.12037611e-01 1.12530082e-01 2.52710491e-01 4.12037611e-01
      3.11354417e-02 3.38408768e-01 4.12037611e-01 9.44046900e-02
      3.46865565e-01 3.46865565e-01 7.20412880e-02 3.46865565e-01
      3.21648628e-01 8.64716917e-02 3.06092471e-01 3.46865565e-01
      1.33795738e-01 3.46865565e-01 3.46865565e-01 2.16612324e-01
      4.10675347e-01 1.61427826e-01 5.79186231e-02 4.10675347e-01
      1.34883627e-01 1.95861503e-01 4.10675347e-01 2.59018779e-01
      1.48284763e-01 4.10675347e-01 1.92500055e-01 3.30418438e-01
      3.13764215e-01 1.41168833e-01 3.65740150e-01 1.50920242e-01
      3.09571117e-01 3.65740150e-01 3.65740150e-01 1.12756118e-01
      3.65740150e-01 1.27622411e-01 2.48047143e-01 3.65740150e-01
      1.15636341e-01 2.18583137e-01 3.59392405e-01 1.37687743e-01
      3.59392405e-01 3.59392405e-01 9.33288708e-02 3.49799931e-01
      3.59392405e-01 1.01258598e-01 3.59392405e-01 3.59392405e-01
      3.42433721e-01 3.61431181e-01 7.14660138e-02 1.76179141e-01
      3.61431181e-01 3.31573606e-01 2.40099832e-01 3.61431181e-01
      1.16920024e-01 2.27749035e-01 3.61431181e-01 2.95503944e-01
      9.54897478e-02 3.16650599e-01 3.16650599e-01 3.16650599e-01
      3.16650599e-01 3.16650599e-01 2.81136930e-01 3.06579322e-01
      2.84001350e-01 3.16650599e-01 2.01268360e-01 3.03178847e-01
      4.32899296e-01 1.73679993e-01 1.52766794e-01 4.32899296e-01
      1.79916382e-01 2.10301980e-01 4.32899296e-01 1.64772898e-01
      1.07535474e-01 4.32899296e-01 1.50348365e-01 2.33774692e-01
      3.50149632e-01 9.77354199e-02 3.65034431e-01 1.07660785e-01
      2.14330792e-01 3.65034431e-01 3.65034431e-01 1.16046280e-01
      3.65034431e-01 1.50323153e-01 3.23037356e-01 3.65034431e-01
      2.08913848e-01 2.49068230e-01 3.24232370e-01 3.24232370e-01
